{"learner":{"attributes":{"best_iteration":"8","best_score":"0.9472903225806452"},"feature_names":["feat_existence_conf_delta","feat_match_exists_score","feat_base_exists_score","feat_addr_richness_delta","feat_match_has_phone","feat_base_has_phone","feat_match_has_web","feat_base_has_web","feat_phone_presence_delta","feat_web_presence_delta","feat_match_has_brand","feat_base_has_brand","feat_brand_delta","feat_match_has_social","feat_base_has_social","feat_social_delta","feat_match_web_valid","feat_base_web_valid","feat_web_valid_delta","feat_match_phone_valid","feat_base_phone_valid","feat_phone_valid_delta","feat_name_similarity","feat_addr_similarity","feat_phone_similarity","feat_phone_exact_match","feat_web_similarity","feat_category_similarity","feat_category_exact_match","feat_is_msft_match","feat_is_meta_match","feat_src_count_delta","feat_match_recency_days","feat_base_recency_days","feat_recency_delta","feat_match_completeness","feat_base_completeness","feat_completeness_delta","feat_valid_count_delta","feat_name_addr_sim_product","feat_avg_similarity","feat_adds_new_info","feat_addr_dissimilarity","feat_conf_x_addr_richness","feat_phone_exclusive","feat_web_exclusive"],"feature_types":["float","float","float","int","int","int","int","int","int","int","int","int","int","int","int","int","int","int","int","int","int","int","float","float","float","int","float","float","int","int","int","int","int","int","int","int","int","int","int","float","float","float","float","float","int","int"],"gradient_booster":{"model":{"gbtree_model_param":{"num_parallel_tree":"1","num_trees":"29"},"iteration_indptr":[0,1,2,3,4,5,6,7,8,9,10,11,12,13,14,15,16,17,18,19,20,21,22,23,24,25,26,27,28,29],"tree_info":[0,0,0,0,0,0,0,0,0,0,0,0,0,0,0,0,0,0,0,0,0,0,0,0,0,0,0,0,0],"trees":[{"base_weights":[6.2881033E-3,-1.1444453E0,9.780302E-2,-7.2290504E-1,-1.7432172E0,-1.4166082E0,-3.2565105E-1,-1.7883408E0,4.446524E-2,-5.248838E-1,-9.746988E-2,-1.5876373E0,-6.853686E-2,-3.6637092E-1,-1.8783259E0,-2.2690785E-3,-8.6E-2,5.8678415E-2,-9.432433E-2,7.703495E-3,-7.108616E-2,6.42205E-2,-8.0909096E-2,-1.8031089E-2,-9.639248E-2],"categories":[],"categories_nodes":[],"categories_segments":[],"categories_sizes":[],"default_left":[0,0,0,0,0,0,0,0,0,0,0,0,0,0,0,0,0,0,0,0,0,0,0,0,0],"id":0,"left_children":[1,3,-1,5,7,9,11,13,-1,15,-1,17,19,21,23,-1,-1,-1,-1,-1,-1,-1,-1,-1,-1],"loss_changes":[1.1142999E3,7.731085E1,0E0,5.036254E1,1.6909698E1,3.0559387E1,3.8358627E1,1.5262848E1,0E0,1.492938E1,0E0,1.8822765E1,3.0475397E1,2.0362995E1,7.9888306E0,0E0,0E0,0E0,0E0,0E0,0E0,0E0,0E0,0E0,0E0],"parents":[2147483647,0,0,1,1,3,3,4,4,5,5,6,6,7,7,9,9,11,11,12,12,13,13,14,14],"right_children":[2,4,-1,6,8,10,12,14,-1,16,-1,18,20,22,24,-1,-1,-1,-1,-1,-1,-1,-1,-1,-1],"split_conditions":[1E0,8.300915E-1,9.780302E-2,7.894737E-1,4.795E3,2.4390244E-1,3.809524E-1,4.41E2,4.446524E-2,0E0,-9.746988E-2,7.924528E-1,4E0,0E0,-9E0,-2.2690785E-3,-8.6E-2,5.8678415E-2,-9.432433E-2,7.703495E-3,-7.108616E-2,6.42205E-2,-8.0909096E-2,-1.8031089E-2,-9.639248E-2],"split_indices":[8,40,0,22,32,27,24,33,0,37,0,22,3,37,3,0,0,0,0,0,0,0,0,0,0],"split_type":[0,0,0,0,0,0,0,0,0,0,0,0,0,0,0,0,0,0,0,0,0,0,0,0,0],"sum_hessian":[4.9460822E2,3.1126492E2,1.8334329E2,1.8405971E2,1.2720522E2,6.599627E1,1.1806343E2,1.2541418E2,1.7910448E0,2.549627E1,4.05E1,1.9041044E1,9.902239E1,7.8320894E0,1.1758209E2,1.899627E1,6.5E0,1.5410448E0,1.75E1,8.5731346E1,1.3291045E1,3.3320897E0,4.5E0,4.0410447E0,1.13541046E2],"tree_param":{"num_deleted":"0","num_feature":"46","num_nodes":"25","size_leaf_vector":"1"}},{"base_weights":[2.3732064E-2,-1.1378235E0,9.323493E-2,-4.7697642E-1,-1.5080273E0,-1.3428397E0,1.1836089E-1,-7.12564E-1,-1.7750599E0,-1.5823582E0,5.431924E-2,-8.236976E-2,3.1614143E-1,-1.1822382E0,1.2923355E0,-3.777119E-1,-1.8549129E0,-8.583941E-2,2.3031337E-2,6.6647656E-2,3.295265E-3,-7.661721E-2,5.746186E-3,7.372853E-2,2.2249099E-2,3.9711323E-2,-7.57188E-2,-5.490764E-2,-9.489815E-2],"categories":[],"categories_nodes":[],"categories_segments":[],"categories_sizes":[],"default_left":[0,0,0,0,0,0,0,0,0,0,0,0,0,0,0,0,0,0,0,0,0,0,0,0,0,0,0,0,0],"id":1,"left_children":[1,3,-1,5,7,9,11,13,15,17,-1,-1,19,21,23,25,27,-1,-1,-1,-1,-1,-1,-1,-1,-1,-1,-1,-1],"loss_changes":[1.0504526E3,7.275928E1,0E0,5.6824936E1,3.9368683E1,2.7859024E1,2.3384645E1,4.8727432E1,1.5069E1,1.22482605E1,0E0,0E0,1.5066103E1,1.9020817E1,6.8883324E-1,1.3358629E1,2.0226135E0,0E0,0E0,0E0,0E0,0E0,0E0,0E0,0E0,0E0,0E0,0E0,0E0],"parents":[2147483647,0,0,1,1,3,3,4,4,5,5,6,6,7,7,8,8,9,9,12,12,13,13,14,14,15,15,16,16],"right_children":[2,4,-1,6,8,10,12,14,16,18,-1,-1,20,22,24,26,28,-1,-1,-1,-1,-1,-1,-1,-1,-1,-1,-1,-1],"split_conditions":[1E0,8.181818E-1,9.323493E-2,7E0,4.5762712E-1,7E0,-1.2721537E-1,4E0,4.597701E-2,3.958E3,5.431924E-2,-8.236976E-2,1.01265825E-1,7.9072684E-1,1E0,9.268293E-1,5.0980395E-1,-8.583941E-2,2.3031337E-2,6.6647656E-2,3.295265E-3,-7.661721E-2,5.746186E-3,7.372853E-2,2.2249099E-2,3.9711323E-2,-7.57188E-2,-5.490764E-2,-9.489815E-2],"split_indices":[44,24,0,36,26,31,41,31,27,33,0,0,26,40,10,23,23,0,0,0,0,0,0,0,0,0,0,0,0],"split_type":[0,0,0,0,0,0,0,0,0,0,0,0,0,0,0,0,0,0,0,0,0,0,0,0,0,0,0,0,0],"sum_hessian":[4.8921036E2,3.0015533E2,1.8905502E2,1.08690895E2,1.9146445E2,4.3840828E1,6.485007E1,4.913605E1,1.4232838E2,4.0260933E1,3.5798955E0,5.742937E0,5.9107132E1,4.0182884E1,8.953169E0,8.071281E0,1.3425711E2,3.7971024E1,2.2899077E0,1.0739945E1,4.8367188E1,3.1560453E1,8.622431E0,6.662158E0,2.2910109E0,4.078993E0,3.9922884E0,8.778311E0,1.254788E2],"tree_param":{"num_deleted":"0","num_feature":"46","num_nodes":"29","size_leaf_vector":"1"}},{"base_weights":[-6.819993E-2,-1.1247797E0,1.7685542E0,-7.5393E-1,-1.595372E0,1.598859E-2,8.927057E-2,-1.4671326E0,-1.4739576E-1,-4.4224215E-1,-1.6712083E0,-7.695314E-1,-1.7240467E0,-1.4227841E0,1.6985753E-1,-7.648763E-2,5.263407E-2,-5.127387E-1,-1.7634346E0,-4.9701785E-3,-8.4780835E-2,-1.989697E-2,-9.153992E-2,-8.630851E-2,4.189246E-3,-4.952891E-2,2.300239E-2,2.2898875E-2,-7.554381E-2,-3.5500895E-2,-9.074744E-2],"categories":[],"categories_nodes":[],"categories_segments":[],"categories_sizes":[],"default_left":[0,0,0,0,0,0,0,0,0,0,0,0,0,0,0,0,0,0,0,0,0,0,0,0,0,0,0,0,0,0,0],"id":2,"left_children":[1,3,5,7,9,-1,-1,11,13,15,17,19,21,23,25,-1,-1,27,29,-1,-1,-1,-1,-1,-1,-1,-1,-1,-1,-1,-1],"loss_changes":[9.1669543E2,5.0897095E1,3.4310913E0,7.304373E1,1.0518646E1,0E0,0E0,1.2370682E1,3.7960667E1,1.7158302E1,1.1968811E1,1.3836335E1,6.9707184E0,8.845711E0,2.5737373E1,0E0,0E0,1.1001515E1,4.59552E0,0E0,0E0,0E0,0E0,0E0,0E0,0E0,0E0,0E0,0E0,0E0,0E0],"parents":[2147483647,0,0,1,1,2,2,3,3,4,4,7,7,8,8,9,9,10,10,11,11,12,12,13,13,14,14,17,17,18,18],"right_children":[2,4,6,8,10,-1,-1,12,14,16,18,20,22,24,26,-1,-1,28,30,-1,-1,-1,-1,-1,-1,-1,-1,-1,-1,-1,-1],"split_conditions":[1E0,8.154762E-1,4.6511628E-2,8.75E-1,4.41E2,1.598859E-2,8.927057E-2,1.9512194E-1,3.809524E-1,3E0,7.5555557E-1,5.52381E-1,-7.1313363E-1,1.507E3,-0E0,-7.648763E-2,5.263407E-2,9.846154E-1,5.217391E-1,-4.9701785E-3,-8.4780835E-2,-1.989697E-2,-9.153992E-2,-8.630851E-2,4.189246E-3,-4.952891E-2,2.300239E-2,2.2898875E-2,-7.554381E-2,-3.5500895E-2,-9.074744E-2],"split_indices":[8,40,27,22,33,0,0,27,24,31,23,22,0,34,43,0,0,26,24,0,0,0,0,0,0,0,0,0,0,0,0],"split_type":[0,0,0,0,0,0,0,0,0,0,0,0,0,0,0,0,0,0,0,0,0,0,0,0,0,0,0,0,0,0,0],"sum_hessian":[4.703667E2,2.9888013E2,1.7148659E2,1.6872845E2,1.3015166E2,2.270268E0,1.6921632E2,7.681757E1,9.191087E1,8.534245E0,1.2161742E2,2.185609E1,5.4961487E1,1.7677233E1,7.423364E1,4.9655533E0,3.568691E0,9.53173E0,1.12085686E2,1.33854885E1,8.470601E0,4.5167885E0,5.04447E1,1.4648081E1,3.029151E0,1.4298304E1,5.993534E1,5.0558033E0,4.475927E0,6.005376E0,1.06080315E2],"tree_param":{"num_deleted":"0","num_feature":"46","num_nodes":"31","size_leaf_vector":"1"}},{"base_weights":[1.02429865E-2,-9.8864853E-1,8.541204E-2,-3.7124512E-1,-1.3026336E0,-1.3455586E0,2.7050328E-1,-3.693316E-1,-1.5792551E0,-8.716428E-2,9.3467735E-2,-3.837485E-1,6.8439585E-1,-7.801151E-1,6.967174E-2,-1.6154455E0,4.914421E-2,-3.544232E-2,6.77263E-2,4.6369964E-3,-8.135369E-2,6.1417944E-3,4.997901E-2,-5.4306384E-2,3.218023E-2,-8.728542E-2,-7.04857E-2],"categories":[],"categories_nodes":[],"categories_segments":[],"categories_sizes":[],"default_left":[0,0,0,0,0,0,0,0,0,0,0,0,0,0,0,0,0,0,0,0,0,0,0,0,0,0,0],"id":3,"left_children":[1,3,-1,5,7,9,11,13,15,-1,17,19,21,23,-1,25,-1,-1,-1,-1,-1,-1,-1,-1,-1,-1,-1],"loss_changes":[8.3599554E2,5.9496918E1,0E0,6.681403E1,5.219055E1,2.4574257E1,1.7823565E1,3.5996876E1,1.6289795E1,0E0,1.1211153E1,1.5490053E1,6.8636646E0,1.8107044E1,0E0,1.4066467E0,0E0,0E0,0E0,0E0,0E0,0E0,0E0,0E0,0E0,0E0,0E0],"parents":[2147483647,0,0,1,1,3,3,4,4,5,5,6,6,7,7,8,8,10,10,11,11,12,12,13,13,15,15],"right_children":[2,4,-1,6,8,10,12,14,16,-1,18,20,22,24,-1,26,-1,-1,-1,-1,-1,-1,-1,-1,-1,-1,-1],"split_conditions":[1E0,7.826087E-1,8.541204E-2,7E0,2.7586207E-1,2.036E3,4.4444445E-1,4E0,4.795E3,-8.716428E-2,9.936306E-1,9.5522386E-1,-4.559387E-2,7.9072684E-1,6.967174E-2,7.692308E-2,4.914421E-2,-3.544232E-2,6.77263E-2,4.6369964E-3,-8.135369E-2,6.1417944E-3,4.997901E-2,-5.4306384E-2,3.218023E-2,-8.728542E-2,-7.04857E-2],"split_indices":[8,24,0,36,26,33,24,31,32,0,26,22,0,40,0,42,0,0,0,0,0,0,0,0,0,0,0],"split_type":[0,0,0,0,0,0,0,0,0,0,0,0,0,0,0,0,0,0,0,0,0,0,0,0,0,0,0],"sum_hessian":[4.908501E2,3.092718E2,1.8157834E2,1.0510324E2,2.0416853E2,4.1363533E1,6.373971E1,4.729502E1,1.568735E2,3.2295547E1,9.0679865E0,2.463294E1,3.910677E1,3.8854744E1,8.440277E0,1.5509135E2,1.7821499E0,5.7611856E0,3.306801E0,1.8419054E1,6.2138863E0,1.4672305E1,2.4434465E1,3.2233807E1,6.620935E0,9.0082436E1,6.500893E1],"tree_param":{"num_deleted":"0","num_feature":"46","num_nodes":"27","size_leaf_vector":"1"}},{"base_weights":[4.5921456E-2,-9.648857E-1,8.267005E-2,-3.902427E-1,-1.2823957E0,-1.028189E0,1.5059999E-1,-5.533594E-1,-1.5365055E0,-1.5107244E0,-2.5594127E-1,-1.3347796E-1,1.3006349E0,-9.4451016E-1,5.8757942E-2,-4.5205897E-1,-1.6072997E0,-8.459933E-2,-0E0,1.9222094E-2,-7.607298E-2,5.6423254E-2,-3.2087382E-2,7.407781E-2,2.0827563E-2,-1.8120704E-2,-8.6405165E-2,3.5235353E-2,-7.177853E-2,-5.707429E-2,-8.42258E-2],"categories":[],"categories_nodes":[],"categories_segments":[],"categories_sizes":[],"default_left":[0,0,0,0,0,0,0,0,0,0,0,0,0,0,0,0,0,0,0,0,0,0,0,0,0,0,0,0,0,0,0],"id":4,"left_children":[1,3,-1,5,7,9,11,13,15,17,19,21,23,25,-1,27,29,-1,-1,-1,-1,-1,-1,-1,-1,-1,-1,-1,-1,-1,-1],"loss_changes":[7.9467834E2,5.411081E1,0E0,3.7643356E1,3.4663757E1,1.8048916E1,1.9713148E1,3.5909904E1,9.994232E0,8.318062E0,1.7305084E1,3.1791658E1,1.1027374E0,1.8596584E1,0E0,1.2688944E1,2.5829468E0,0E0,0E0,0E0,0E0,0E0,0E0,0E0,0E0,0E0,0E0,0E0,0E0,0E0,0E0],"parents":[2147483647,0,0,1,1,3,3,4,4,5,5,6,6,7,7,8,8,9,9,10,10,11,11,12,12,13,13,15,15,16,16],"right_children":[2,4,-1,6,8,10,12,14,16,18,20,22,24,26,-1,28,30,-1,-1,-1,-1,-1,-1,-1,-1,-1,-1,-1,-1,-1,-1],"split_conditions":[1E0,8.181818E-1,8.267005E-2,4.4444445E-1,4.5762712E-1,8.8063896E-1,9.936306E-1,4E0,4.597701E-2,7E0,0E0,1.3559322E-1,6.923077E-1,8.3594406E-1,5.8757942E-2,0E0,7.5555557E-1,-8.459933E-2,-0E0,1.9222094E-2,-7.607298E-2,5.6423254E-2,-3.2087382E-2,7.407781E-2,2.0827563E-2,-1.8120704E-2,-8.6405165E-2,3.5235353E-2,-7.177853E-2,-5.707429E-2,-8.42258E-2],"split_indices":[8,24,0,24,26,1,26,31,27,35,37,26,24,1,0,37,23,0,0,0,0,0,0,0,0,0,0,0,0,0,0],"split_type":[0,0,0,0,0,0,0,0,0,0,0,0,0,0,0,0,0,0,0,0,0,0,0,0,0,0,0,0,0,0,0],"sum_hessian":[4.8705322E2,2.992303E2,1.8782294E2,1.0739902E2,1.9183125E2,4.894738E1,5.845164E1,5.050486E1,1.413264E2,2.9456104E1,1.9491274E1,4.751229E1,1.0939352E1,4.160205E1,8.902809E0,9.199767E0,1.3212663E2,2.6185678E1,3.2704256E0,1.3352024E1,6.1392503E0,1.3235054E1,3.4277237E1,8.426093E0,2.5132585E0,2.4782423E1,1.6819626E1,4.311068E0,4.8886995E0,2.1216213E1,1.10910416E2],"tree_param":{"num_deleted":"0","num_feature":"46","num_nodes":"31","size_leaf_vector":"1"}},{"base_weights":[-4.920149E-3,-9.5948297E-1,1.5919241E0,-6.331441E-1,-1.413652E0,9.1364473E-1,8.030634E-2,-1.1441438E0,-2.0130092E-1,-1.4579124E0,6.431079E-2,9.847064E-3,6.1886627E-2,-4.6326312E-1,-1.3922813E0,-7.595485E-2,-1.2056869E-2,-3.8353068E-1,-1.535977E0,-4.1425284E-2,6.568714E-2,-3.7724882E-2,-7.7875756E-2,7.1295337E-3,-5.6922507E-2,6.1261404E-2,-7.025474E-2,-3.5267938E-2,-7.8872964E-2],"categories":[],"categories_nodes":[],"categories_segments":[],"categories_sizes":[],"default_left":[0,0,0,0,0,0,0,0,0,0,0,0,0,0,0,0,0,0,0,0,0,0,0,0,0,0,0,0,0],"id":5,"left_children":[1,3,5,7,9,11,-1,13,15,17,-1,-1,-1,19,21,-1,23,25,27,-1,-1,-1,-1,-1,-1,-1,-1,-1,-1],"loss_changes":[7.399947E2,4.3942413E1,3.0029297E-2,3.9086006E1,1.6964005E1,1.0501981E0,0E0,1.2949852E1,2.4321249E1,9.668976E0,0E0,0E0,0E0,1.622205E1,4.8294296E0,0E0,1.5408748E1,1.7943117E1,2.6468506E0,0E0,0E0,0E0,0E0,0E0,0E0,0E0,0E0,0E0,0E0],"parents":[2147483647,0,0,1,1,2,2,3,3,4,4,5,5,7,7,8,8,9,9,13,13,14,14,16,16,17,17,18,18],"right_children":[2,4,6,8,10,12,-1,14,16,18,-1,-1,-1,20,22,-1,24,26,28,-1,-1,-1,-1,-1,-1,-1,-1,-1,-1],"split_conditions":[1E0,8.300915E-1,4.6511628E-2,8.75E-1,4.795E3,-1.9095251E-1,8.030634E-2,1.9565217E-1,2.2222222E-1,4.41E2,6.431079E-2,9.847064E-3,6.1886627E-2,1.882353E-1,-1.21015385E-1,-7.595485E-2,2.1775286E-1,0E0,7.2727275E-1,-4.1425284E-2,6.568714E-2,-3.7724882E-2,-7.7875756E-2,7.1295337E-3,-5.6922507E-2,6.1261404E-2,-7.025474E-2,-3.5267938E-2,-7.8872964E-2],"split_indices":[8,40,27,22,32,0,0,27,24,33,0,0,0,27,41,0,0,37,24,0,0,0,0,0,0,0,0,0,0],"split_type":[0,0,0,0,0,0,0,0,0,0,0,0,0,0,0,0,0,0,0,0,0,0,0,0,0,0,0,0,0],"sum_hessian":[4.8350842E2,3.029015E2,1.8060693E2,1.7777626E2,1.2512524E2,5.1884713E0,1.7541846E2,8.056396E1,9.721231E1,1.235961E2,1.5291371E0,2.2123065E0,2.9761648E0,2.2391737E1,5.817222E1,1.1258492E1,8.595381E1,8.859483E0,1.1473662E2,1.9063498E1,3.3282392E0,1.3239751E1,4.493247E1,7.6267365E1,9.686454E0,3.3253965E0,5.5340867E0,6.428574E0,1.08308044E2],"tree_param":{"num_deleted":"0","num_feature":"46","num_nodes":"29","size_leaf_vector":"1"}},{"base_weights":[-1.8102938E-2,-8.8211936E-1,1.5510153E0,-3.1815448E-1,-1.197994E0,8.8638043E-1,7.831328E-2,-1.048866E0,2.2450836E-1,-4.9409062E-1,-1.470906E0,8.362566E-3,6.0874153E-2,-6.5764874E-1,-7.9667695E-2,5.879168E-1,-7.006766E-1,-1.3995711E0,1.8905424E-1,-1.5102497E0,3.6825255E-2,-6.675892E-2,4.4986144E-2,5.3897905E-3,5.4314043E-2,-6.0632724E-2,4.311828E-2,6.793132E-2,-8.2558624E-2,-7.235785E-2,2.4472326E-2,-5.153909E-2,-7.915398E-2],"categories":[],"categories_nodes":[],"categories_segments":[],"categories_sizes":[],"default_left":[0,0,0,0,0,0,0,0,0,0,0,0,0,0,0,0,0,0,0,0,0,0,0,0,0,0,0,0,0,0,0,0,0],"id":6,"left_children":[1,3,5,7,9,11,-1,13,15,17,19,-1,-1,21,-1,23,25,27,29,31,-1,-1,-1,-1,-1,-1,-1,-1,-1,-1,-1,-1,-1],"loss_changes":[6.2931464E2,5.280478E1,3.692627E-2,4.3526825E1,3.5853485E1,1.1217089E0,0E0,8.673168E0,2.1674976E1,3.4466095E1,1.311795E1,0E0,0E0,3.1823738E1,0E0,1.0782485E1,1.5663942E1,1.8840405E1,1.6449345E1,2.8319397E0,0E0,0E0,0E0,0E0,0E0,0E0,0E0,0E0,0E0,0E0,0E0,0E0,0E0],"parents":[2147483647,0,0,1,1,2,2,3,3,4,4,5,5,7,7,8,8,9,9,10,10,13,13,15,15,16,16,17,17,18,18,19,19],"right_children":[2,4,6,8,10,12,-1,14,16,18,20,-1,-1,22,-1,24,26,28,30,32,-1,-1,-1,-1,-1,-1,-1,-1,-1,-1,-1,-1,-1],"split_conditions":[1E0,8.181818E-1,4.6511628E-2,4.4444445E-1,4.5762712E-1,7.222222E-1,7.831328E-2,9.5522386E-1,-2.2916465E-4,1E0,4.795E3,8.362566E-3,6.0874153E-2,8.965517E-1,-7.9667695E-2,9.589041E-1,9.89899E-1,4.0093023E-1,9.4736844E-1,7.5555557E-1,3.6825255E-2,-6.675892E-2,4.4986144E-2,5.3897905E-3,5.4314043E-2,-6.0632724E-2,4.311828E-2,6.793132E-2,-8.2558624E-2,-7.235785E-2,2.4472326E-2,-5.153909E-2,-7.915398E-2],"split_indices":[8,24,27,24,26,22,0,22,41,22,32,0,0,22,0,22,26,40,24,23,0,0,0,0,0,0,0,0,0,0,0,0,0],"split_type":[0,0,0,0,0,0,0,0,0,0,0,0,0,0,0,0,0,0,0,0,0,0,0,0,0,0,0,0,0,0,0,0,0],"sum_hessian":[4.6222418E2,2.9840985E2,1.6381432E2,1.07967575E2,1.9044229E2,5.1477265E0,1.586666E2,4.56926E1,6.227497E1,5.4095158E1,1.3634712E2,2.1926396E0,2.955087E0,2.7980186E1,1.7712414E1,4.5051556E1,1.7223417E1,2.2874119E1,3.122104E1,1.3431432E2,2.032814E0,1.9641914E1,8.338272E0,2.3667439E1,2.1384115E1,1.3190868E1,4.032549E0,1.5111091E0,2.136301E1,4.1989985E0,2.7022041E1,1.9890884E1,1.1442343E2],"tree_param":{"num_deleted":"0","num_feature":"46","num_nodes":"33","size_leaf_vector":"1"}},{"base_weights":[-4.799593E-3,-9.219718E-1,7.492372E-2,-4.5512274E-1,-1.1448556E0,-6.780899E-1,1.0073885E0,-1.2472917E0,-4.380433E-2,-1.4001662E0,-3.3066696E-1,1.292666E0,1.567765E-2,4.0181494E-1,-1.3001001E0,1.0952686E0,-9.505786E-1,-7.77546E-2,-4.2263407E-2,-4.164411E-2,5.751069E-3,1.9441273E-2,7.4925594E-2,-5.084777E-2,5.2602362E-2,4.3158256E-2,-4.062396E-2,-6.644404E-2,3.5543796E-2,7.153488E-2,1.3517791E-2,4.4211343E-2,-7.18986E-2],"categories":[],"categories_nodes":[],"categories_segments":[],"categories_sizes":[],"default_left":[0,0,0,0,0,0,0,0,0,0,0,0,0,0,0,0,0,0,0,0,0,0,0,0,0,0,0,0,0,0,0,0,0],"id":7,"left_children":[1,3,-1,5,7,9,11,13,15,17,19,21,23,25,27,29,31,-1,-1,-1,-1,-1,-1,-1,-1,-1,-1,-1,-1,-1,-1,-1,-1],"loss_changes":[6.4012885E2,2.9329437E1,0E0,3.1630442E1,2.1743225E1,2.0209324E1,3.5015535E0,1.6091309E1,1.9274492E1,7.313881E-1,1.3038734E1,1.0772247E0,5.327248E0,4.191077E0,1.0991608E1,1.7248173E0,1.0645805E1,0E0,0E0,0E0,0E0,0E0,0E0,0E0,0E0,0E0,0E0,0E0,0E0,0E0,0E0,0E0,0E0],"parents":[2147483647,0,0,1,1,3,3,4,4,5,5,6,6,7,7,8,8,9,9,10,10,11,11,12,12,13,13,14,14,15,15,16,16],"right_children":[2,4,-1,6,8,10,12,14,16,18,20,22,24,26,28,30,32,-1,-1,-1,-1,-1,-1,-1,-1,-1,-1,-1,-1,-1,-1,-1,-1],"split_conditions":[1E0,7.2727275E-1,7.492372E-2,6.363636E-1,4E0,5.0793654E-1,3.8709676E-1,5E0,2.1284112E-1,9.645127E-1,1E-1,1.8181819E-1,2.2792792E-2,0E0,4.795E3,7.7840024E-1,7.3610705E-1,-7.77546E-2,-4.2263407E-2,-4.164411E-2,5.751069E-3,1.9441273E-2,7.4925594E-2,-5.084777E-2,5.2602362E-2,4.3158256E-2,-4.062396E-2,-6.644404E-2,3.5543796E-2,7.153488E-2,1.3517791E-2,4.4211343E-2,-7.18986E-2],"split_indices":[8,24,0,24,31,39,27,35,0,1,42,27,0,12,32,40,40,0,0,0,0,0,0,0,0,0,0,0,0,0,0,0,0],"split_type":[0,0,0,0,0,0,0,0,0,0,0,0,0,0,0,0,0,0,0,0,0,0,0,0,0,0,0,0,0,0,0,0,0],"sum_hessian":[4.6231802E2,2.8741476E2,1.7490326E2,9.400468E1,1.9341008E2,8.2093796E1,1.1910886E1,1.767432E2,1.6666897E1,2.559004E1,5.6503754E1,8.936025E0,2.9748607E0,5.220302E0,1.7152289E2,7.2462E0,9.420696E0,1.8454815E1,7.135224E0,2.626414E1,3.0239616E1,2.283632E0,6.6523924E0,1.4511675E0,1.5236932E0,4.052239E0,1.168063E0,1.6948615E2,2.036742E0,4.543229E0,2.7029707E0,1.7633079E0,7.657388E0],"tree_param":{"num_deleted":"0","num_feature":"46","num_nodes":"33","size_leaf_vector":"1"}},{"base_weights":[1.1467165E-3,-8.736886E-1,7.401596E-2,-4.008991E-1,-1.1385579E0,-1.3202428E0,1.9698189E-1,-4.217754E-1,-1.3946308E0,-7.791903E-2,-5.761234E-1,-8.7153274E-1,5.318091E-1,-1.274078E0,1.9957674E-1,-1.4326637E0,3.43229E-2,1.5241027E-2,-7.053548E-2,3.5065465E-2,-7.689444E-2,6.633385E-2,2.0444386E-3,6.408334E-2,-7.718211E-2,-3.1837855E-2,3.4572072E-2,-0E0,-7.3483884E-2],"categories":[],"categories_nodes":[],"categories_segments":[],"categories_sizes":[],"default_left":[0,0,0,0,0,0,0,0,0,0,0,0,0,0,0,0,0,0,0,0,0,0,0,0,0,0,0,0,0],"id":8,"left_children":[1,3,-1,5,7,9,11,13,15,-1,17,19,21,23,25,27,-1,-1,-1,-1,-1,-1,-1,-1,-1,-1,-1,-1,-1],"loss_changes":[5.903469E2,3.5278915E1,0E0,5.7858513E1,3.282094E1,6.2265015E0,2.3389763E1,2.6685675E1,1.1687958E1,0E0,9.162913E0,1.7532803E1,1.9146847E1,1.6583817E1,1.2599619E1,6.880005E0,0E0,0E0,0E0,0E0,0E0,0E0,0E0,0E0,0E0,0E0,0E0,0E0,0E0],"parents":[2147483647,0,0,1,1,3,3,4,4,5,5,6,6,7,7,8,8,10,10,11,11,12,12,13,13,14,14,15,15],"right_children":[2,4,-1,6,8,10,12,14,16,-1,18,20,22,24,26,28,-1,-1,-1,-1,-1,-1,-1,-1,-1,-1,-1,-1,-1],"split_conditions":[1E0,8.181818E-1,7.401596E-2,4.4444445E-1,4.5762712E-1,9.645127E-1,8.4210527E-1,1E0,4.795E3,-7.791903E-2,5.982847E-1,1.5686275E-1,6E0,4.0093023E-1,5.833333E-1,5E0,3.43229E-2,1.5241027E-2,-7.053548E-2,3.5065465E-2,-7.689444E-2,6.633385E-2,2.0444386E-3,6.408334E-2,-7.718211E-2,-3.1837855E-2,3.4572072E-2,-0E0,-7.3483884E-2],"split_indices":[8,24,0,24,26,1,22,22,32,0,40,27,35,40,27,35,0,0,0,0,0,0,0,0,0,0,0,0,0],"split_type":[0,0,0,0,0,0,0,0,0,0,0,0,0,0,0,0,0,0,0,0,0,0,0,0,0,0,0,0,0],"sum_hessian":[4.5416095E2,2.855929E2,1.6856807E2,1.03585236E2,1.8200764E2,4.0408836E1,6.31764E1,4.870721E1,1.3330043E2,2.9681372E1,1.0727467E1,1.4619725E1,4.8556675E1,2.0161848E1,2.8545362E1,1.312612E2,2.0392325E0,5.469307E0,5.258159E0,4.2903705E0,1.0329354E1,1.7811409E1,3.0745264E1,1.5300305E0,1.8631817E1,1.0386673E1,1.815869E1,3.392872E0,1.2786833E2],"tree_param":{"num_deleted":"0","num_feature":"46","num_nodes":"29","size_leaf_vector":"1"}},{"base_weights":[-4.3892246E-2,-8.387131E-1,1.4223297E0,-3.3052003E-1,-1.1161563E0,7.1423076E-2,2.3246316E-2,-1.1544292E0,2.4223399E-1,-5.953219E-1,-1.3096445E0,-7.551539E-2,-3.05166E-2,5.0652844E-1,-7.674475E-2,-0E0,-1.2759726E0,5.2209955E-2,-1.3460062E0,-3.5519656E-2,5.4606427E-2,-8.632857E-4,4.5795932E-2,2.6549596E-2,-6.651208E-2,-7.555986E-2,5.1142592E-2,-2.9243845E-2,-6.911328E-2],"categories":[],"categories_nodes":[],"categories_segments":[],"categories_sizes":[],"default_left":[0,0,0,0,0,0,0,0,0,0,0,0,0,0,0,0,0,0,0,0,0,0,0,0,0,0,0,0,0],"id":9,"left_children":[1,3,5,7,9,-1,-1,11,13,15,17,-1,19,21,-1,23,25,-1,27,-1,-1,-1,-1,-1,-1,-1,-1,-1,-1],"loss_changes":[5.0608176E2,3.9197388E1,4.260254E-2,4.8037506E1,1.7334442E1,0E0,0E0,1.646613E1,2.9016575E1,2.0733418E1,1.2687698E1,0E0,9.216794E0,1.1541771E1,0E0,2.069703E1,1.4504307E1,0E0,2.581009E0,0E0,0E0,0E0,0E0,0E0,0E0,0E0,0E0,0E0,0E0],"parents":[2147483647,0,0,1,1,2,2,3,3,4,4,7,7,8,8,9,9,10,10,12,12,13,13,15,15,16,16,18,18],"right_children":[2,4,6,8,10,-1,-1,12,14,16,18,-1,20,22,-1,24,26,-1,28,-1,-1,-1,-1,-1,-1,-1,-1,-1,-1],"split_conditions":[1E0,7.2727275E-1,9.444444E-1,7E0,6E0,7.1423076E-2,2.3246316E-2,2.036E3,3.8709676E-1,7E0,-3.6E1,-7.551539E-2,9.936306E-1,-4.7657657E-2,-7.674475E-2,9.84127E-1,1.816E3,5.2209955E-2,-9E0,-3.5519656E-2,5.4606427E-2,-8.632857E-4,4.5795932E-2,2.6549596E-2,-6.651208E-2,-7.555986E-2,5.1142592E-2,-2.9243845E-2,-6.911328E-2],"split_indices":[8,24,39,36,35,0,0,33,27,36,3,0,26,0,0,26,33,0,3,0,0,0,0,0,0,0,0,0,0],"split_type":[0,0,0,0,0,0,0,0,0,0,0,0,0,0,0,0,0,0,0,0,0,0,0,0,0,0,0,0,0],"sum_hessian":[4.3228836E2,2.8064847E2,1.516399E2,1.0001063E2,1.8063783E2,1.500822E2,1.5577018E0,4.066823E1,5.93424E1,5.017354E1,1.304643E2,3.0559135E1,1.0109094E1,5.2330982E1,7.011415E0,2.7299334E1,2.2874203E1,1.5212383E0,1.2894305E2,6.5803246E0,3.5287693E0,2.3270767E1,2.9060217E1,1.9939497E1,7.359836E0,2.1101171E1,1.7730317E0,6.7677283E0,1.2217532E2],"tree_param":{"num_deleted":"0","num_feature":"46","num_nodes":"29","size_leaf_vector":"1"}},{"base_weights":[-5.6402516E-2,-8.1795657E-1,1.394849E0,-5.3523093E-1,-1.2214481E0,1.4012994E0,2.161718E-2,-6.279666E-1,7.37986E-1,-1.7096482E-1,-1.3364191E0,7.038755E-2,2.223747E-2,-2.7714995E-1,-8.821214E-1,6.962542E-2,-5.6487408E-2,-6.698819E-2,7.608405E-1,-1.3872964E0,4.6921905E-2,-2.7379248E-2,3.3576604E-2,-5.7675075E-2,3.462407E-4,-4.6365548E-2,6.622156E-2,1.9567523E-2,-7.182316E-2],"categories":[],"categories_nodes":[],"categories_segments":[],"categories_sizes":[],"default_left":[0,0,0,0,0,0,0,0,0,0,0,0,0,0,0,0,0,0,0,0,0,0,0,0,0,0,0,0,0],"id":10,"left_children":[1,3,5,7,9,11,-1,13,15,17,19,-1,-1,21,23,-1,-1,-1,25,27,-1,-1,-1,-1,-1,-1,-1,-1,-1],"loss_changes":[4.6840497E2,3.0882904E1,1.1627197E-1,1.9979504E1,1.3341782E1,7.937622E-2,0E0,1.3438942E1,1.5797804E1,1.4625344E1,1.317157E1,0E0,0E0,1.7453003E1,2.162571E1,0E0,0E0,0E0,8.414831E0,9.44487E0,0E0,0E0,0E0,0E0,0E0,0E0,0E0,0E0,0E0],"parents":[2147483647,0,0,1,1,2,2,3,3,4,4,5,5,7,7,8,8,9,9,10,10,13,13,14,14,18,18,19,19],"right_children":[2,4,6,8,10,12,-1,14,16,18,20,-1,-1,22,24,-1,-1,-1,26,28,-1,-1,-1,-1,-1,-1,-1,-1,-1],"split_conditions":[1E0,8.300915E-1,6.0022354E-1,4E0,8.181818E-1,5.04E2,2.161718E-2,2.6E-1,2.5157234E-1,8.7219846E-1,4.795E3,7.038755E-2,2.223747E-2,2.4E-1,7.9072684E-1,6.962542E-2,-5.6487408E-2,-6.698819E-2,1E0,5E0,4.6921905E-2,-2.7379248E-2,3.3576604E-2,-5.7675075E-2,3.462407E-4,-4.6365548E-2,6.622156E-2,1.9567523E-2,-7.182316E-2],"split_indices":[8,40,40,31,24,32,0,27,26,40,32,0,0,27,40,0,0,0,31,35,0,0,0,0,0,0,0,0,0],"split_type":[0,0,0,0,0,0,0,0,0,0,0,0,0,0,0,0,0,0,0,0,0,0,0,0,0,0,0,0,0],"sum_hessian":[4.2183664E2,2.769897E2,1.4484694E2,1.6438194E2,1.1260775E2,1.4332663E2,1.520314E0,1.5376752E2,1.0614436E1,1.1439805E1,1.01167946E2,1.4179404E2,1.5325912E0,6.564285E1,8.812466E1,8.088063E0,2.5263727E0,4.927969E0,6.511836E0,9.937944E1,1.788508E0,5.1492428E1,1.4150429E1,6.7373886E1,2.0750769E1,1.4239151E0,5.087921E0,2.4313061E0,9.694813E1],"tree_param":{"num_deleted":"0","num_feature":"46","num_nodes":"29","size_leaf_vector":"1"}},{"base_weights":[5.5739813E-2,-6.8274474E-1,1.3622489E0,-9.661684E-2,-1.0512444E0,4.366605E-1,6.895196E-2,-9.6908295E-1,4.1786426E-1,-1.1679521E0,-0E0,-0E0,4.0350523E-2,-1.1796801E0,4.2049248E-2,-4.3407542E-1,6.4988136E-1,6.0069855E-2,-1.2005324E0,-6.283844E-2,7.014477E-1,-7.215797E-2,-2.6861468E-2,4.6056546E-2,-7.161583E-2,-4.001687E-2,4.3042365E-2,-7.202977E-2,-4.982565E-2,7.514375E-2,-2.4350818E-2],"categories":[],"categories_nodes":[],"categories_segments":[],"categories_sizes":[],"default_left":[0,0,0,0,0,0,0,0,0,0,0,0,0,0,0,0,0,0,0,0,0,0,0,0,0,0,0,0,0,0,0],"id":11,"left_children":[1,3,5,7,9,11,-1,13,15,17,19,-1,-1,21,-1,23,25,-1,27,-1,29,-1,-1,-1,-1,-1,-1,-1,-1,-1,-1],"loss_changes":[4.2016452E2,5.986606E1,1.6603394E0,4.9200493E1,2.0866302E1,6.9681853E-1,0E0,1.652253E1,1.3929246E1,1.329129E1,1.6861015E1,0E0,0E0,5.269657E0,0E0,2.2017397E1,1.7421339E1,0E0,5.763199E0,0E0,1.2478171E1,0E0,0E0,0E0,0E0,0E0,0E0,0E0,0E0,0E0,0E0],"parents":[2147483647,0,0,1,1,2,2,3,3,4,4,5,5,7,7,8,8,9,9,10,10,13,13,15,15,16,16,18,18,20,20],"right_children":[2,4,6,8,10,12,-1,14,16,18,20,-1,-1,22,-1,24,26,-1,28,-1,30,-1,-1,-1,-1,-1,-1,-1,-1,-1,-1],"split_conditions":[1E0,8.181818E-1,4.6511628E-2,7E0,4.721461E-2,-1.9095251E-1,6.895196E-2,7E0,7.3333335E-1,1.6E-1,1E0,-0E0,4.0350523E-2,8.2051283E-1,4.2049248E-2,1.9512194E-1,1.8181819E-1,6.0069855E-2,1E0,-6.283844E-2,1E0,-7.215797E-2,-2.6861468E-2,4.6056546E-2,-7.161583E-2,-4.001687E-2,4.3042365E-2,-7.202977E-2,-4.982565E-2,7.514375E-2,-2.4350818E-2],"split_indices":[8,24,27,36,41,0,0,31,22,23,22,0,0,27,0,27,27,0,22,0,10,0,0,0,0,0,0,0,0,0,0],"split_type":[0,0,0,0,0,0,0,0,0,0,0,0,0,0,0,0,0,0,0,0,0,0,0,0,0,0,0,0,0,0,0],"sum_hessian":[4.334429E2,2.7717487E2,1.5626802E2,1.0758537E2,1.6958951E2,3.3714755E0,1.5289655E2,3.9652584E1,6.7932785E1,1.5249712E2,1.7092386E1,2.0216851E0,1.3497903E0,3.5881382E1,3.7712002E0,1.4262109E1,5.367068E1,1.5402552E0,1.5095686E2,5.8666005E0,1.1225786E1,2.4451456E1,1.1429927E1,6.039707E0,8.222402E0,6.401043E0,4.7269638E1,6.634255E1,8.46143E1,6.59686E0,4.6289263E0],"tree_param":{"num_deleted":"0","num_feature":"46","num_nodes":"31","size_leaf_vector":"1"}},{"base_weights":[-2.7213215E-3,-7.6002294E-1,1.3333404E0,-3.5775664E-1,-9.779351E-1,5.950931E-1,1.3440789E0,-6.720751E-2,-1.5124421E-1,-3.0567074E-1,-1.1927214E0,8.069498E-3,4.0340815E-2,6.751552E-2,1.9345222E-2,1.4143912E-1,-7.603891E-1,-6.922383E-2,1.0826216E-1,-1.2309624E0,4.829767E-2,-6.434874E-2,1.3334098E-2,9.93714E-3,-6.1005045E-2,2.4579246E-2,-7.061739E-2,-1.2873473E-2,-6.557275E-2],"categories":[],"categories_nodes":[],"categories_segments":[],"categories_sizes":[],"default_left":[0,0,0,0,0,0,0,0,0,0,0,0,0,0,0,0,0,0,0,0,0,0,0,0,0,0,0,0,0],"id":12,"left_children":[1,3,5,7,9,11,13,-1,15,17,19,-1,-1,-1,-1,21,23,-1,25,27,-1,-1,-1,-1,-1,-1,-1,-1,-1],"loss_changes":[4.2362424E2,2.29478E1,2.0678711E-1,1.9133259E1,2.4413757E1,1.49382E-1,1.8862915E-1,0E0,1.4487612E1,1.9595322E1,1.19785E1,0E0,0E0,0E0,0E0,1.0076674E1,1.19549675E1,0E0,1.9327059E1,9.582184E0,0E0,0E0,0E0,0E0,0E0,0E0,0E0,0E0,0E0],"parents":[2147483647,0,0,1,1,2,2,3,3,4,4,5,5,6,6,8,8,9,9,10,10,15,15,16,16,18,18,19,19],"right_children":[2,4,6,8,10,12,14,-1,16,18,20,-1,-1,-1,-1,22,24,-1,26,28,-1,-1,-1,-1,-1,-1,-1,-1,-1],"split_conditions":[1E0,8.181818E-1,4.597701E-2,1.904762E-1,2.5157234E-1,4E0,9.361702E-1,-6.720751E-2,9.6153843E-1,9.5238096E-1,4.795E3,8.069498E-3,4.0340815E-2,6.751552E-2,1.9345222E-2,-7.177419E-1,6E0,-6.922383E-2,4.38E2,-8E0,4.829767E-2,-6.434874E-2,1.3334098E-2,9.93714E-3,-6.1005045E-2,2.4579246E-2,-7.061739E-2,-1.2873473E-2,-6.557275E-2],"split_indices":[8,24,27,24,26,3,39,0,23,24,32,0,0,0,0,43,35,0,32,3,0,0,0,0,0,0,0,0,0],"split_type":[0,0,0,0,0,0,0,0,0,0,0,0,0,0,0,0,0,0,0,0,0,0,0,0,0,0,0,0,0],"sum_hessian":[4.167382E2,2.6630063E2,1.5043756E2,9.4659546E1,1.7164108E2,3.0992591E0,1.473383E2,1.53496895E1,7.930985E1,4.2259827E1,1.2938126E2,1.7496935E0,1.3495656E0,1.4587341E2,1.464884E0,5.3978016E1,2.5331839E1,1.1135364E1,3.1124462E1,1.27596954E2,1.784297E0,3.5391526E0,5.0438866E1,8.321081E0,1.7010757E1,2.5451105E1,5.673357E0,1.0160078E1,1.1743688E2],"tree_param":{"num_deleted":"0","num_feature":"46","num_nodes":"29","size_leaf_vector":"1"}},{"base_weights":[-1.8097013E-2,-7.119355E-1,1.3200735E0,-4.3454987E-1,-1.131676E0,1.7602962E-2,6.633602E-2,-9.93618E-1,-9.775863E-3,3.197915E-2,-1.1758903E0,-2.3471618E-1,-1.3157822E0,-6.310389E-2,1.4543132E-1,-5.1840138E-2,-1.2587223E0,-2.8336966E-2,5.8506824E-2,-7.156472E-2,-9.800759E-3,-3.6976535E-2,1.997703E-2,-5.735853E-2,6.1264105E-2,-2.7698162E-3,-6.572955E-2],"categories":[],"categories_nodes":[],"categories_segments":[],"categories_sizes":[],"default_left":[0,0,0,0,0,0,0,0,0,0,0,0,0,0,0,0,0,0,0,0,0,0,0,0,0,0,0],"id":13,"left_children":[1,3,5,7,9,-1,-1,11,13,-1,15,17,19,-1,21,23,25,-1,-1,-1,-1,-1,-1,-1,-1,-1,-1],"loss_changes":[3.793074E2,3.0684006E1,2.6242065E-1,3.878829E1,9.1315155E0,0E0,0E0,1.6799164E1,1.8602512E1,0E0,9.498932E0,1.1028434E1,5.927948E0,0E0,1.9292583E1,1.2970038E1,6.301712E0,0E0,0E0,0E0,0E0,0E0,0E0,0E0,0E0,0E0,0E0],"parents":[2147483647,0,0,1,1,2,2,3,3,4,4,7,7,8,8,10,10,11,11,12,12,14,14,15,15,16,16],"right_children":[2,4,6,8,10,-1,-1,12,14,-1,16,18,20,-1,22,24,26,-1,-1,-1,-1,-1,-1,-1,-1,-1,-1],"split_conditions":[1E0,8.300915E-1,2.5E-1,8.75E-1,-4.003E3,1.7602962E-2,6.633602E-2,1.9565217E-1,2.2222222E-1,3.197915E-2,4.41E2,1.8965517E-1,9.89899E-1,-6.310389E-2,-0E0,3E0,-9E0,-2.8336966E-2,5.8506824E-2,-7.156472E-2,-9.800759E-3,-3.6976535E-2,1.997703E-2,-5.735853E-2,6.1264105E-2,-2.7698162E-3,-6.572955E-2],"split_indices":[8,40,22,22,34,0,0,27,24,0,33,27,26,0,43,31,3,0,0,0,0,0,0,0,0,0,0],"split_type":[0,0,0,0,0,0,0,0,0,0,0,0,0,0,0,0,0,0,0,0,0,0,0,0,0,0,0],"sum_hessian":[4.0658093E2,2.6810947E2,1.3847147E2,1.627979E2,1.0531156E2,1.4149557E0,1.3705652E2,6.960819E1,9.3189705E1,2.1817548E0,1.0312981E2,2.1351282E1,4.8256912E1,9.560749E0,8.362896E1,7.272559E0,9.585725E1,1.7809862E1,3.5414197E0,4.3411213E1,4.8456984E0,1.8142385E1,6.548657E1,4.011839E0,3.26072E0,4.420822E0,9.1436424E1],"tree_param":{"num_deleted":"0","num_feature":"46","num_nodes":"27","size_leaf_vector":"1"}},{"base_weights":[3.8731903E-2,-6.508009E-1,1.2913467E0,-3.9162874E-1,-1.0162454E0,1.2977732E0,1.6229201E-2,-8.8203996E-1,-0E0,-1.1432593E0,-1.4211264E-1,1.7169857E-2,6.5207325E-2,5.4051185E-1,-1.0087739E0,-6.412449E-2,1.3182299E-1,-2.6257804E-2,-1.233924E0,4.0974814E-1,-5.6697607E-2,-4.493935E-2,7.022702E-2,-3.59343E-2,-7.131525E-2,1.9641746E-2,-2.9682472E-2,6.6161826E-2,-5.5515535E-2,-6.7448586E-2,-5.0877202E-2,5.22342E-2,-4.95807E-2],"categories":[],"categories_nodes":[],"categories_segments":[],"categories_sizes":[],"default_left":[0,0,0,0,0,0,0,0,0,0,0,0,0,0,0,0,0,0,0,0,0,0,0,0,0,0,0,0,0,0,0,0,0],"id":14,"left_children":[1,3,5,7,9,11,-1,13,15,17,19,-1,-1,21,23,-1,25,27,29,31,-1,-1,-1,-1,-1,-1,-1,-1,-1,-1,-1,-1,-1],"loss_changes":[3.488415E2,2.4127144E1,3.075409E-1,2.9582272E1,1.161911E1,2.5125122E-1,0E0,1.2926109E1,1.4866061E1,9.302574E0,8.6660185E0,0E0,0E0,9.002024E0,6.4190063E0,0E0,1.5275319E1,1.332402E1,5.391388E-1,1.0127487E1,0E0,0E0,0E0,0E0,0E0,0E0,0E0,0E0,0E0,0E0,0E0,0E0,0E0],"parents":[2147483647,0,0,1,1,2,2,3,3,4,4,5,5,7,7,8,8,9,9,10,10,13,13,14,14,16,16,17,17,18,18,19,19],"right_children":[2,4,6,8,10,12,-1,14,16,18,20,-1,-1,22,24,-1,26,28,30,32,-1,-1,-1,-1,-1,-1,-1,-1,-1,-1,-1,-1,-1],"split_conditions":[1E0,8.18254E-1,5.982847E-1,8.75E-1,1.904762E-1,2.5E-1,1.6229201E-2,-7.1313363E-1,2.9166666E-1,4.41E2,5.88E2,1.7169857E-2,6.5207325E-2,7.4725276E-1,6.25E-1,-6.412449E-2,1E0,0E0,1E0,9.895134E-1,-5.6697607E-2,-4.493935E-2,7.022702E-2,-3.59343E-2,-7.131525E-2,1.9641746E-2,-2.9682472E-2,6.6161826E-2,-5.5515535E-2,-6.7448586E-2,-5.0877202E-2,5.22342E-2,-4.95807E-2],"split_indices":[8,40,40,22,42,22,0,0,39,33,33,0,0,22,22,0,10,37,26,1,0,0,0,0,0,0,0,0,0,0,0,0,0],"split_type":[0,0,0,0,0,0,0,0,0,0,0,0,0,0,0,0,0,0,0,0,0,0,0,0,0,0,0,0,0,0,0,0,0],"sum_hessian":[4.018359E2,2.5942798E2,1.4240793E2,1.5315572E2,1.0627227E2,1.4102464E2,1.3832918E0,6.741386E1,8.574186E1,9.2420975E1,1.3851291E1,1.4036307E0,1.39621E2,5.1829333E0,6.2230927E1,7.1979375E0,7.854392E1,7.118068E0,8.530291E1,9.211859E0,4.639432E0,1.8857256E0,3.2972076E0,3.8466415E1,2.3764511E1,5.8200706E1,2.0343212E1,3.0314512E0,4.0866175E0,5.197288E1,3.3330025E1,6.563788E0,2.6480706E0],"tree_param":{"num_deleted":"0","num_feature":"46","num_nodes":"33","size_leaf_vector":"1"}},{"base_weights":[3.6464825E-2,-6.217042E-1,1.2559228E0,-1.2531509E-1,-9.5093733E-1,5.678566E-1,6.366169E-2,-9.8210245E-1,3.3648908E-1,-3.4627E-1,-1.18617E0,-3.534906E-3,4.821815E-2,-1.2213732E0,7.7437595E-2,-1.1464968E-1,6.806844E-1,-6.7237996E-2,1.6415888E-2,2.4574416E-2,-1.2279434E0,-6.822791E-2,3.468242E-2,4.022248E-2,-5.483816E-2,1.7616061E-2,-6.9282636E-2,4.714438E-2,-4.173412E-3,-3.209683E-2,2.1095112E-2,-9.717585E-3,-6.374279E-2],"categories":[],"categories_nodes":[],"categories_segments":[],"categories_sizes":[],"default_left":[0,0,0,0,0,0,0,0,0,0,0,0,0,0,0,0,0,0,0,0,0,0,0,0,0,0,0,0,0,0,0,0,0],"id":15,"left_children":[1,3,5,7,9,11,-1,13,15,17,19,-1,-1,21,23,25,27,-1,29,-1,31,-1,-1,-1,-1,-1,-1,-1,-1,-1,-1,-1,-1],"loss_changes":[3.2143768E2,4.2270676E1,7.65213E-1,4.1927616E1,2.1635025E1,1.522861E0,0E0,9.6128235E0,1.0829496E1,1.6538843E1,8.514221E0,0E0,0E0,9.348465E0,7.4235573E0,1.871583E1,8.046495E0,0E0,9.3524275E0,0E0,4.912567E0,0E0,0E0,0E0,0E0,0E0,0E0,0E0,0E0,0E0,0E0,0E0,0E0],"parents":[2147483647,0,0,1,1,2,2,3,3,4,4,5,5,7,7,8,8,9,9,10,10,13,13,14,14,15,15,16,16,18,18,20,20],"right_children":[2,4,6,8,10,12,-1,14,16,18,20,-1,-1,22,24,26,28,-1,30,-1,32,-1,-1,-1,-1,-1,-1,-1,-1,-1,-1,-1,-1],"split_conditions":[1E0,8.181818E-1,4.6511628E-2,7E0,4.5762712E-1,2E0,6.366169E-2,1.618E3,9.5440614E-1,9.5238096E-1,-4.003E3,-3.534906E-3,4.821815E-2,6E0,7.846154E-1,8.965517E-1,1E0,-6.7237996E-2,8.5E-1,2.4574416E-2,-9E0,-6.822791E-2,3.468242E-2,4.022248E-2,-5.483816E-2,1.7616061E-2,-6.9282636E-2,4.714438E-2,-4.173412E-3,-3.209683E-2,2.1095112E-2,-9.717585E-3,-6.374279E-2],"split_indices":[8,24,27,36,26,3,0,34,1,24,34,0,0,31,1,23,3,0,39,0,3,0,0,0,0,0,0,0,0,0,0,0,0],"split_type":[0,0,0,0,0,0,0,0,0,0,0,0,0,0,0,0,0,0,0,0,0,0,0,0,0,0,0,0,0,0,0,0,0],"sum_hessian":[3.984389E2,2.5903827E2,1.3940063E2,1.0396828E2,1.5506999E2,4.3924346E0,1.350082E2,3.609358E1,6.78747E1,4.424221E1,1.1082779E2,1.9007928E0,2.4916418E0,2.9396704E1,6.696873E0,2.9536896E1,3.8337807E1,1.1140333E1,3.310188E1,2.372843E0,1.0845494E2,2.7667673E1,1.7290311E0,4.38311E0,2.3137631E0,2.2071774E1,7.465123E0,2.846693E1,9.870877E0,1.2300651E1,2.0801228E1,5.024631E0,1.0343031E2],"tree_param":{"num_deleted":"0","num_feature":"46","num_nodes":"33","size_leaf_vector":"1"}},{"base_weights":[-5.538944E-2,-7.2167796E-1,6.1902553E-2,-5.143462E-1,-1.0504165E0,-1.0540581E0,-3.8465908E-1,-1.0979004E0,4.3104593E-2,-1.22199E0,3.994894E-2,-1.8877305E-1,-8.0338776E-1,2.7361098E-1,-1.1444222E0,-7.1069516E-2,-2.23863E-3,-6.432969E-2,-6.028283E-4,-6.1197425E-3,-7.266729E-2,5.4574367E-2,-3.661096E-2,-5.9485313E-2,1.686685E-2],"categories":[],"categories_nodes":[],"categories_segments":[],"categories_sizes":[],"default_left":[0,0,0,0,0,0,0,0,0,0,0,0,0,0,0,0,0,0,0,0,0,0,0,0,0],"id":16,"left_children":[1,3,-1,5,7,9,11,13,-1,15,-1,17,19,21,23,-1,-1,-1,-1,-1,-1,-1,-1,-1,-1],"loss_changes":[3.216174E2,1.609378E1,0E0,1.0174801E1,9.518532E0,1.0030373E1,1.00230255E1,6.292122E0,0E0,6.1271667E0,0E0,1.669509E1,1.712622E1,3.933235E0,6.4971313E0,0E0,0E0,0E0,0E0,0E0,0E0,0E0,0E0,0E0,0E0],"parents":[2147483647,0,0,1,1,3,3,4,4,5,5,6,6,7,7,9,9,11,11,12,12,13,13,14,14],"right_children":[2,4,-1,6,8,10,12,14,-1,16,-1,18,20,22,24,-1,-1,-1,-1,-1,-1,-1,-1,-1,-1],"split_conditions":[1E0,8.300915E-1,6.1902553E-2,-5.234014E-2,4.795E3,1.507E3,1E0,5E0,4.3104593E-2,9.89011E-1,3.994894E-2,-1.9559267E-1,8.965517E-1,9.268293E-1,7E0,-7.1069516E-2,-2.23863E-3,-6.432969E-2,-6.028283E-4,-6.1197425E-3,-7.266729E-2,5.4574367E-2,-3.661096E-2,-5.9485313E-2,1.686685E-2],"split_indices":[44,40,0,43,32,34,10,35,0,26,0,41,23,23,31,0,0,0,0,0,0,0,0,0,0],"split_type":[0,0,0,0,0,0,0,0,0,0,0,0,0,0,0,0,0,0,0,0,0,0,0,0,0],"sum_hessian":[3.712138E2,2.4534756E2,1.2586625E2,1.5221564E2,9.3131935E1,2.7959461E1,1.2425617E2,9.13423E1,1.789633E0,2.5997908E1,1.9615539E0,8.5805176E1,3.8450996E1,2.7660253E0,8.857628E1,2.198215E1,4.0157576E0,1.0947747E1,7.485743E1,1.9432638E1,1.9018358E1,1.5334127E0,1.2326126E0,8.6206314E1,2.3699632E0],"tree_param":{"num_deleted":"0","num_feature":"46","num_nodes":"25","size_leaf_vector":"1"}},{"base_weights":[-1.6196793E-2,-7.0089257E-1,1.229539E0,-2.9133493E-1,-9.56338E-1,6.1821777E-2,1.2736688E-2,-5.120523E-1,6.829099E-1,-1.2361383E0,-7.1901774E-1,-1.0423592E0,-1.3659348E-1,-4.6550114E-2,9.455379E-1,-2.051808E-1,-6.587413E-2,-1.52360415E-2,-1.0793498E0,-5.9785105E-2,3.9943706E-2,2.6339654E-2,-3.1427007E-2,-0E0,5.9878152E-2,3.0229628E-2,-4.877643E-2,2.2110213E-2,-4.4317957E-2,2.3623262E-2,-5.79969E-2],"categories":[],"categories_nodes":[],"categories_segments":[],"categories_sizes":[],"default_left":[0,0,0,0,0,0,0,0,0,0,0,0,0,0,0,0,0,0,0,0,0,0,0,0,0,0,0,0,0,0,0],"id":17,"left_children":[1,3,5,7,9,-1,-1,11,13,15,17,19,21,-1,23,25,-1,27,29,-1,-1,-1,-1,-1,-1,-1,-1,-1,-1,-1,-1],"loss_changes":[3.169813E2,2.4694313E1,4.2185974E-1,2.0489418E1,8.68718E0,0E0,0E0,1.5086895E1,8.366634E0,5.108162E0,2.0721169E1,9.942207E0,1.54805765E1,0E0,3.7875023E0,4.4304867E0,0E0,1.1970599E1,7.4025574E0,0E0,0E0,0E0,0E0,0E0,0E0,0E0,0E0,0E0,0E0,0E0,0E0],"parents":[2147483647,0,0,1,1,2,2,3,3,4,4,7,7,8,8,9,9,10,10,11,11,12,12,14,14,15,15,17,17,18,18],"right_children":[2,4,6,8,10,-1,-1,12,14,16,18,20,22,-1,24,26,-1,28,30,-1,-1,-1,-1,-1,-1,-1,-1,-1,-1,-1,-1],"split_conditions":[1E0,8.181818E-1,9.361702E-1,1E0,1E0,6.1821777E-2,1.2736688E-2,7E0,3.6363637E-1,4.597701E-2,8.3921885E-1,3.958E3,3.9583334E-1,-4.6550114E-2,9.1E1,3.8961038E-1,-6.587413E-2,1E0,5E0,-5.9785105E-2,3.9943706E-2,2.6339654E-2,-3.1427007E-2,-0E0,5.9878152E-2,3.0229628E-2,-4.877643E-2,2.2110213E-2,-4.4317957E-2,2.3623262E-2,-5.79969E-2],"split_indices":[8,24,39,26,22,0,0,36,24,27,40,33,26,0,34,22,0,10,35,0,0,0,0,0,0,0,0,0,0,0,0],"split_type":[0,0,0,0,0,0,0,0,0,0,0,0,0,0,0,0,0,0,0,0,0,0,0,0,0,0,0,0,0,0,0],"sum_hessian":[3.6968094E2,2.3889458E2,1.3078636E2,9.2738365E1,1.461562E2,1.2949922E2,1.2871523E0,7.607945E1,1.6658916E1,6.495006E1,8.120615E1,3.0689833E1,4.5389618E1,1.9220076E0,1.4736909E1,5.0973907E0,5.9852665E1,2.794508E1,5.3261066E1,2.870418E1,1.985653E0,1.9210411E1,2.6179207E1,3.2857218E0,1.1451188E1,2.526717E0,2.5706737E0,1.857083E1,9.374251E0,2.3280635E0,5.0933002E1],"tree_param":{"num_deleted":"0","num_feature":"46","num_nodes":"31","size_leaf_vector":"1"}},{"base_weights":[2.3794514E-3,9.936208E-1,-5.462338E-1,-5.903784E-2,1.2009653E0,1.7451404E-2,-7.491825E-1,4.3898612E-1,1.2143121E0,2.725723E-1,-1.0016608E0,-1.1193001E0,-4.2242765E-1,7.7748316E-4,3.4547634E-2,6.109629E-2,1.2426762E-2,-6.3189596E-1,6.2108874E-1,-6.972771E-2,1.7737264E-2,-6.361354E-1,-6.455609E-2,-1.0224522E0,-1.6910672E-1,3.97594E-2,-4.69228E-2,1.1493037E-2,6.77421E-2,-4.9423706E-2,8.819252E-3,-6.908232E-2,-6.286899E-3,6.7276694E-3,-5.0831318E-2],"categories":[],"categories_nodes":[],"categories_segments":[],"categories_sizes":[],"default_left":[0,0,0,0,0,0,0,0,0,0,0,0,0,0,0,0,0,0,0,0,0,0,0,0,0,0,0,0,0,0,0,0,0,0,0],"id":18,"left_children":[1,3,5,-1,7,9,11,13,15,17,19,21,23,-1,-1,-1,-1,25,27,-1,-1,29,-1,31,33,-1,-1,-1,-1,-1,-1,-1,-1,-1,-1],"loss_changes":[2.004112E2,6.0631454E1,2.7212402E1,0E0,5.264435E-1,1.6740715E1,2.0476639E1,3.2066846E-1,4.1452026E-1,1.670275E1,7.4589148E0,5.716316E0,1.4060993E1,0E0,0E0,0E0,0E0,7.2392635E0,1.0420414E1,0E0,0E0,6.9520473E0,0E0,8.6028385E0,1.7651304E1,0E0,0E0,0E0,0E0,0E0,0E0,0E0,0E0,0E0,0E0],"parents":[2147483647,0,0,1,1,2,2,4,4,5,5,6,6,7,7,8,8,9,9,10,10,11,11,12,12,17,17,18,18,21,21,23,23,24,24],"right_children":[2,4,6,-1,8,10,12,14,16,18,20,22,24,-1,-1,-1,-1,26,28,-1,-1,30,-1,32,34,-1,-1,-1,-1,-1,-1,-1,-1,-1,-1],"split_conditions":[1E0,1E0,2.7586207E-1,-5.903784E-2,4.6511628E-2,1E0,5E-2,8.3594406E-1,9.361702E-1,8.4210527E-1,3.958E3,4.34E2,-0E0,7.7748316E-4,3.4547634E-2,6.109629E-2,1.2426762E-2,5E0,5.121951E-1,-6.972771E-2,1.7737264E-2,9.89899E-1,-6.455609E-2,9.9029124E-1,1.8368324E-2,3.97594E-2,-4.69228E-2,1.1493037E-2,6.77421E-2,-4.9423706E-2,8.819252E-3,-6.908232E-2,-6.286899E-3,6.7276694E-3,-5.0831318E-2],"split_indices":[5,4,26,0,27,10,42,1,39,22,33,32,43,0,0,0,0,35,27,0,0,26,0,26,41,0,0,0,0,0,0,0,0,0,0],"split_type":[0,0,0,0,0,0,0,0,0,0,0,0,0,0,0,0,0,0,0,0,0,0,0,0,0,0,0,0,0,0,0,0,0,0,0],"sum_hessian":[3.6645258E2,1.303342E2,2.3611838E2,1.0895757E1,1.19438446E2,6.2618458E1,1.7349992E2,2.76845E0,1.1667E2,5.074564E1,1.1872818E1,8.007118E1,9.342874E1,1.5769444E0,1.1915057E0,1.1539154E2,1.2784547E0,1.3808874E1,3.6936764E1,9.241536E0,2.6312819E0,2.2391195E1,5.767999E1,2.6716404E1,6.671234E1,2.1022882E0,1.1706586E1,2.5036938E1,1.1899827E1,1.5553255E1,6.8379407E0,1.8609674E1,8.106729E0,4.9647312E1,1.7065023E1],"tree_param":{"num_deleted":"0","num_feature":"46","num_nodes":"35","size_leaf_vector":"1"}},{"base_weights":[3.5729248E-2,-5.3077286E-1,1.1865019E0,-2.8641057E-1,-9.77663E-1,1.1941062E0,8.145164E-3,-7.911722E-1,-4.417714E-3,2.6969337E-3,-1.0643104E0,6.045119E-2,4.9649957E-1,-6.2042255E-2,-5.790522E-1,1.0492289E-1,-6.481429E-2,5.8895636E-2,-5.077914E-2,2.2571553E-1,-1.1283354E0,-2.8849232E-3,4.0143188E-2,-3.3789348E-2,5.0423115E-2,1.5807657E-2,-2.3647873E-2,6.4713E-2,-4.2962555E-2,-5.9155222E-2,-3.681256E-2],"categories":[],"categories_nodes":[],"categories_segments":[],"categories_sizes":[],"default_left":[0,0,0,0,0,0,0,0,0,0,0,0,0,0,0,0,0,0,0,0,0,0,0,0,0,0,0,0,0,0,0],"id":19,"left_children":[1,3,5,7,9,11,-1,13,15,17,19,-1,21,-1,23,25,-1,-1,-1,27,29,-1,-1,-1,-1,-1,-1,-1,-1,-1,-1],"loss_changes":[2.4117174E2,2.66566E1,6.19812E-1,2.294384E1,7.5033875E0,4.8731995E-1,0E0,4.6176414E0,1.5075947E1,1.0753273E1,6.958687E0,0E0,8.6252725E-1,0E0,6.9959364E0,1.2046197E1,0E0,0E0,0E0,6.42563E0,5.804062E-1,0E0,0E0,0E0,0E0,0E0,0E0,0E0,0E0,0E0,0E0],"parents":[2147483647,0,0,1,1,2,2,3,3,4,4,5,5,7,7,8,8,9,9,10,10,12,12,14,14,15,15,19,19,20,20],"right_children":[2,4,6,8,10,12,-1,14,16,18,20,-1,22,-1,24,26,-1,-1,-1,28,30,-1,-1,-1,-1,-1,-1,-1,-1,-1,-1],"split_conditions":[1E0,8.3921885E-1,5.9448886E-1,8.181818E-1,4.41E2,4.55E2,8.145164E-3,9.8775285E-1,8E0,0E0,-9E0,6.045119E-2,5.24E2,-6.2042255E-2,-2.101021E-3,1E0,-6.481429E-2,5.8895636E-2,-5.077914E-2,4.52E2,1.826E3,-2.8849232E-3,4.0143188E-2,-3.3789348E-2,5.0423115E-2,1.5807657E-2,-2.3647873E-2,6.4713E-2,-4.2962555E-2,-5.9155222E-2,-3.681256E-2],"split_indices":[8,40,40,22,33,32,0,2,3,12,3,0,32,0,0,10,0,0,0,33,34,0,0,0,0,0,0,0,0,0,0],"split_type":[0,0,0,0,0,0,0,0,0,0,0,0,0,0,0,0,0,0,0,0,0,0,0,0,0,0,0,0,0,0,0],"sum_hessian":[3.6787686E2,2.4682283E2,1.2105402E2,1.6077481E2,8.604802E1,1.19899025E2,1.155004E0,5.685149E1,1.0392332E2,6.9725795E0,7.907544E1,1.1653067E2,3.3683507E0,1.6516672E1,4.033482E1,9.6589584E1,7.3337355E0,3.209673E0,3.7629066E0,3.5457392E0,7.55297E1,1.371903E0,1.9964479E0,3.861889E1,1.7159286E0,7.119275E1,2.539684E1,1.7356379E0,1.8101014E0,6.4278336E1,1.125136E1],"tree_param":{"num_deleted":"0","num_feature":"46","num_nodes":"31","size_leaf_vector":"1"}},{"base_weights":[6.241436E-2,-4.9769598E-1,1.1670713E0,-2.2795492E-1,-1.0138408E0,5.8705598E-2,9.9401865E-3,-7.7182037E-1,2.3477426E-2,3.1285606E-2,-1.1057789E0,-2.946267E-1,-1.1339278E0,1.1981945E-1,-6.522072E-2,5.210042E-2,-4.8701163E-2,-1.222833E-1,-1.1715314E0,-5.816629E-2,8.699197E-3,-6.3391603E-3,-6.5559335E-2,7.6515876E-2,1.7513636E-3,-5.1367313E-2,8.301992E-2,-9.237005E-3,-6.1689623E-2],"categories":[],"categories_nodes":[],"categories_segments":[],"categories_sizes":[],"default_left":[0,0,0,0,0,0,0,0,0,0,0,0,0,0,0,0,0,0,0,0,0,0,0,0,0,0,0,0,0],"id":20,"left_children":[1,3,5,7,9,-1,-1,11,13,15,17,19,21,23,-1,-1,-1,25,27,-1,-1,-1,-1,-1,-1,-1,-1,-1,-1],"loss_changes":[2.2949658E2,3.3903564E1,4.8007202E-1,2.238609E1,8.21727E0,0E0,0E0,8.455875E0,1.4408504E1,8.825014E0,4.7301025E0,9.979222E0,4.8532867E0,1.2433674E1,0E0,0E0,0E0,1.1419599E1,4.072319E0,0E0,0E0,0E0,0E0,0E0,0E0,0E0,0E0,0E0,0E0],"parents":[2147483647,0,0,1,1,2,2,3,3,4,4,7,7,8,8,9,9,10,10,11,11,12,12,13,13,17,17,18,18],"right_children":[2,4,6,8,10,-1,-1,12,14,16,18,20,22,24,-1,-1,-1,26,28,-1,-1,-1,-1,-1,-1,-1,-1,-1,-1],"split_conditions":[1E0,8.3921885E-1,6.0022354E-1,4.6666667E-1,4.41E2,5.8705598E-2,9.9401865E-3,4E-1,1.445E3,0E0,7.5555557E-1,6.3114756E-1,-2.1398602E0,5.1724136E-1,-6.522072E-2,5.210042E-2,-4.8701163E-2,7.4418604E-1,7.2727275E-1,-5.816629E-2,8.699197E-3,-6.3391603E-3,-6.5559335E-2,7.6515876E-2,1.7513636E-3,-5.1367313E-2,8.301992E-2,-9.237005E-3,-6.1689623E-2],"split_indices":[8,40,40,39,33,0,0,23,32,12,23,1,43,23,0,0,0,23,24,0,0,0,0,0,0,0,0,0,0],"split_type":[0,0,0,0,0,0,0,0,0,0,0,0,0,0,0,0,0,0,0,0,0,0,0,0,0,0,0,0,0],"sum_hessian":[3.688687E2,2.4506749E2,1.23801216E2,1.6202661E2,8.3040886E1,1.2259392E2,1.2072948E0,5.0695904E1,1.11330696E2,6.6797204E0,7.636117E1,2.2773827E1,2.7922077E1,1.0471819E2,6.612504E0,3.36229E0,3.3174307E0,5.059788E0,7.130138E1,7.5355344E0,1.5238293E1,4.519978E0,2.34021E1,4.9045715E0,9.981362E1,3.6742058E0,1.3855823E0,4.5624986E0,6.6738884E1],"tree_param":{"num_deleted":"0","num_feature":"46","num_nodes":"29","size_leaf_vector":"1"}},{"base_weights":[2.1702033E-2,-5.19638E-1,1.1731384E0,-8.46525E-2,-7.243264E-1,5.9056293E-2,9.602497E-3,-2.3516726E-1,1.2059647E0,-4.437019E-1,-9.694318E-1,4.8455232E-1,-5.296684E-1,7.641588E-2,1.3629422E-2,-1.8650444E-1,-1.0520731E0,9.933413E-2,-1.0776243E0,-2.7993714E-2,4.9602177E-2,4.7296938E-3,-6.891066E-2,1.6727122E-3,-4.690412E-2,-6.4329706E-2,1.4019849E-2,-5.078276E-2,6.4341456E-2,-6.4344004E-2,-3.9452612E-2],"categories":[],"categories_nodes":[],"categories_segments":[],"categories_sizes":[],"default_left":[0,0,0,0,0,0,0,0,0,0,0,0,0,0,0,0,0,0,0,0,0,0,0,0,0,0,0,0,0,0,0],"id":21,"left_children":[1,3,5,7,9,-1,-1,11,13,15,17,19,21,-1,-1,23,25,27,29,-1,-1,-1,-1,-1,-1,-1,-1,-1,-1,-1,-1],"loss_changes":[2.1775923E2,2.100666E1,5.1148987E-1,1.5201752E1,1.0518692E1,0E0,0E0,1.5125582E1,1.8604822E0,1.1760301E1,1.0037071E1,1.1616589E1,2.6925545E1,0E0,0E0,9.312603E0,7.5267925E0,1.2783162E1,3.4497757E0,0E0,0E0,0E0,0E0,0E0,0E0,0E0,0E0,0E0,0E0,0E0,0E0],"parents":[2147483647,0,0,1,1,2,2,3,3,4,4,7,7,8,8,9,9,10,10,11,11,12,12,15,15,16,16,17,17,18,18],"right_children":[2,4,6,8,10,-1,-1,12,14,16,18,20,22,-1,-1,24,26,28,30,-1,-1,-1,-1,-1,-1,-1,-1,-1,-1,-1,-1],"split_conditions":[1E0,3.9583334E-1,9.444444E-1,3.958E3,0E0,5.9056293E-2,9.602497E-3,5.19E2,-5E0,3.3333334E-1,-7.39E2,1.3E1,2.6E-1,7.641588E-2,1.3629422E-2,8.8235295E-1,1.826E3,1E0,9.830508E-1,-2.7993714E-2,4.9602177E-2,4.7296938E-3,-6.891066E-2,1.6727122E-3,-4.690412E-2,-6.4329706E-2,1.4019849E-2,-5.078276E-2,6.4341456E-2,-6.4344004E-2,-3.9452612E-2],"split_indices":[44,26,39,33,37,0,0,33,3,27,34,34,27,0,0,39,34,3,26,0,0,0,0,0,0,0,0,0,0,0,0],"split_type":[0,0,0,0,0,0,0,0,0,0,0,0,0,0,0,0,0,0,0,0,0,0,0,0,0,0,0,0,0,0,0],"sum_hessian":[3.472718E2,2.3653046E2,1.1074134E2,7.6295715E1,1.6023474E2,1.0954368E2,1.1976621E0,6.9129E1,7.166714E0,7.620493E1,8.402981E1,1.9787128E1,4.934187E1,4.773561E0,2.3931532E0,5.4595047E1,2.1609884E1,7.6470447E0,7.638277E1,6.3723803E0,1.3414749E1,2.88719E1,2.046997E1,4.2870804E1,1.1724241E1,1.8468771E1,3.1411142E0,3.9751267E0,3.671918E0,4.2070015E1,3.431275E1],"tree_param":{"num_deleted":"0","num_feature":"46","num_nodes":"31","size_leaf_vector":"1"}},{"base_weights":[-5.002325E-2,-5.791181E-1,1.1157799E0,-3.4112433E-1,-1.0409473E0,8.660401E-2,1.141402E0,-9.066847E-1,-1.12830244E-1,4.4427093E-2,-1.1036409E0,-1.4182257E-2,2.9058272E-2,5.752445E-2,6.480392E-3,-1.2807234E-1,-6.281912E-2,-9.474231E-1,4.3124348E-2,1.1325405E-1,-6.101323E-2,1.7612228E-2,-5.314958E-2,-6.193896E-2,2.3606353E-2,-8.832296E-3,3.8873117E-2,6.286528E-2,-4.7580518E-2],"categories":[],"categories_nodes":[],"categories_segments":[],"categories_sizes":[],"default_left":[0,0,0,0,0,0,0,0,0,0,0,0,0,0,0,0,0,0,0,0,0,0,0,0,0,0,0,0,0],"id":22,"left_children":[1,3,5,7,9,11,13,15,17,-1,19,-1,-1,-1,-1,21,-1,23,25,27,-1,-1,-1,-1,-1,-1,-1,-1,-1],"loss_changes":[2.0111559E2,2.416285E1,2.4619064E0,1.9119967E1,1.0154182E1,8.627537E-1,6.3417053E-1,1.1346802E1,1.4174732E1,0E0,1.0718643E1,0E0,0E0,0E0,0E0,6.938321E0,0E0,7.7471333E0,1.5006668E1,1.0110496E1,0E0,0E0,0E0,0E0,0E0,0E0,0E0,0E0,0E0],"parents":[2147483647,0,0,1,1,2,2,3,3,4,4,5,5,6,6,7,7,8,8,10,10,15,15,17,17,18,18,19,19],"right_children":[2,4,6,8,10,12,14,16,18,-1,20,-1,-1,-1,-1,22,-1,24,26,28,-1,-1,-1,-1,-1,-1,-1,-1,-1],"split_conditions":[1E0,8.3921885E-1,4.6511628E-2,7.407407E-1,-4.003E3,0E0,5.982847E-1,1.9512194E-1,3.809524E-1,4.4427093E-2,4.41E2,-1.4182257E-2,2.9058272E-2,5.752445E-2,6.480392E-3,6.938525E-1,-6.281912E-2,7E0,8.405797E-1,0E0,-6.101323E-2,1.7612228E-2,-5.314958E-2,-6.193896E-2,2.3606353E-2,-8.832296E-3,3.8873117E-2,6.286528E-2,-4.7580518E-2],"split_indices":[44,40,27,22,34,12,40,27,24,0,33,0,0,0,0,40,0,35,26,37,0,0,0,0,0,0,0,0,0],"split_type":[0,0,0,0,0,0,0,0,0,0,0,0,0,0,0,0,0,0,0,0,0,0,0,0,0,0,0,0,0],"sum_hessian":[3.2409155E2,2.2332532E2,1.0076623E2,1.4866777E2,7.4657555E1,2.6489186E0,9.811731E1,4.1772873E1,1.0689489E2,1.8847176E0,7.2772835E1,1.6430991E0,1.0058197E0,9.701015E1,1.1071632E0,1.34587555E1,2.8314117E1,1.6131767E1,9.076312E1,6.2919273E0,6.648091E1,9.232046E0,4.22671E0,1.3548739E1,2.5830274E0,7.033636E1,2.0426765E1,2.9913354E0,3.3005922E0],"tree_param":{"num_deleted":"0","num_feature":"46","num_nodes":"29","size_leaf_vector":"1"}},{"base_weights":[1.825676E-2,-5.0496376E-1,1.1392462E0,-2.7210268E-1,-9.466142E-1,3.5815355E-1,5.813217E-2,-8.317656E-1,-2.6606416E-2,-1.0019157E0,4.4828128E-2,-1.3917844E-2,4.12081E-2,-1.1561571E-1,-1.0975599E0,-5.9161097E-2,8.654878E-2,7.8516625E-2,-1.1182984E0,-5.6946028E-2,2.9056514E-2,1.0436543E-2,-6.276226E-2,-3.015217E-2,1.3289605E-2,-5.1303603E-2,5.2030314E-2,7.435875E-5,-5.978786E-2],"categories":[],"categories_nodes":[],"categories_segments":[],"categories_sizes":[],"default_left":[0,0,0,0,0,0,0,0,0,0,0,0,0,0,0,0,0,0,0,0,0,0,0,0,0,0,0,0,0],"id":23,"left_children":[1,3,5,7,9,11,-1,13,15,17,-1,-1,-1,19,21,-1,23,25,27,-1,-1,-1,-1,-1,-1,-1,-1,-1,-1],"loss_changes":[1.9923659E2,2.3427052E1,1.4074097E0,2.0930023E1,8.998337E0,1.6822252E0,0E0,8.608658E0,1.4293209E1,9.94651E0,0E0,0E0,0E0,1.0567031E1,7.311455E0,0E0,1.2345602E1,9.990295E0,6.2085724E0,0E0,0E0,0E0,0E0,0E0,0E0,0E0,0E0,0E0,0E0],"parents":[2147483647,0,0,1,1,2,2,3,3,4,4,5,5,7,7,8,8,9,9,13,13,14,14,16,16,17,17,18,18],"right_children":[2,4,6,8,10,12,-1,14,16,18,-1,-1,-1,20,22,-1,24,26,28,-1,-1,-1,-1,-1,-1,-1,-1,-1,-1],"split_conditions":[1E0,8.3921885E-1,4.6511628E-2,7.894737E-1,4.795E3,-1.9095251E-1,5.813217E-2,1.5686275E-1,5.0454545E-1,7.2727275E-1,4.4828128E-2,-1.3917844E-2,4.12081E-2,1.56E2,1.6E-1,-5.9161097E-2,-0E0,8.7219846E-1,7.5555557E-1,-5.6946028E-2,2.9056514E-2,1.0436543E-2,-6.276226E-2,-3.015217E-2,1.3289605E-2,-5.1303603E-2,5.2030314E-2,7.435875E-5,-5.978786E-2],"split_indices":[8,40,27,22,32,0,0,27,40,24,0,0,0,34,23,0,43,40,23,0,0,0,0,0,0,0,0,0,0],"split_type":[0,0,0,0,0,0,0,0,0,0,0,0,0,0,0,0,0,0,0,0,0,0,0,0,0,0,0,0,0],"sum_hessian":[3.3760104E2,2.3048349E2,1.0711756E2,1.521203E2,7.836319E1,3.7139003E0,1.0340366E2,4.552975E1,1.0659055E2,7.657632E1,1.7868719E0,1.6492783E0,2.064622E0,1.2814332E1,3.2715416E1,8.734812E0,9.785574E1,7.3946495E0,6.918167E1,4.991806E0,7.8225265E0,3.4206126E0,2.9294806E1,1.958505E1,7.827069E1,3.3630455E0,4.0316043E0,4.4558134E0,6.472585E1],"tree_param":{"num_deleted":"0","num_feature":"46","num_nodes":"29","size_leaf_vector":"1"}},{"base_weights":[3.782905E-2,-4.351386E-1,1.1039863E0,-2.203421E-1,-8.343192E-1,6.513842E-2,5.648033E-2,-3.281771E-1,8.0816877E-1,1.3043149E-1,-9.766426E-1,1.13117285E-2,-3.6864262E-3,-5.8292568E-2,-2.2966066E-1,1.0322756E0,-3.9901566E-2,-5.2187778E-2,8.4254545E-1,-1.0396042E0,4.3399543E-2,6.07972E-3,-2.9613564E-2,6.484967E-2,1.9255636E-2,6.9733694E-2,-3.8485657E-2,-2.402161E-2,-5.9047133E-2],"categories":[],"categories_nodes":[],"categories_segments":[],"categories_sizes":[],"default_left":[0,0,0,0,0,0,0,0,0,0,0,0,0,0,0,0,0,0,0,0,0,0,0,0,0,0,0,0,0],"id":24,"left_children":[1,3,5,7,9,11,-1,13,15,17,19,-1,-1,-1,21,23,-1,-1,25,27,-1,-1,-1,-1,-1,-1,-1,-1,-1],"loss_changes":[1.6660164E2,1.9325401E1,2.509552E0,1.688171E1,1.11292E1,1.1244598E-1,0E0,1.0881568E1,6.0519714E0,1.00682535E1,8.990875E0,0E0,0E0,0E0,1.5881095E1,1.5901499E0,0E0,0E0,7.778492E0,4.617775E0,0E0,0E0,0E0,0E0,0E0,0E0,0E0,0E0,0E0],"parents":[2147483647,0,0,1,1,2,2,3,3,4,4,5,5,7,7,8,8,9,9,10,10,14,14,15,15,18,18,19,19],"right_children":[2,4,6,8,10,12,-1,14,16,18,20,-1,-1,-1,22,24,-1,-1,26,28,-1,-1,-1,-1,-1,-1,-1,-1,-1],"split_conditions":[1E0,8.300915E-1,4.6511628E-2,4E0,8.181818E-1,9.803922E-2,5.648033E-2,1.904762E-1,8.096774E-1,1E0,4.795E3,1.13117285E-2,-3.6864262E-3,-5.8292568E-2,7.2727275E-1,5E0,-3.9901566E-2,-5.2187778E-2,2.2792792E-2,4.52E2,4.3399543E-2,6.07972E-3,-2.9613564E-2,6.484967E-2,1.9255636E-2,6.9733694E-2,-3.8485657E-2,-2.402161E-2,-5.9047133E-2],"split_indices":[8,40,27,31,24,42,0,24,40,31,32,0,0,0,24,31,0,0,0,33,0,0,0,0,0,0,0,0,0],"split_type":[0,0,0,0,0,0,0,0,0,0,0,0,0,0,0,0,0,0,0,0,0,0,0,0,0,0,0,0,0],"sum_hessian":[3.2830447E2,2.2776266E2,1.00541794E2,1.4925307E2,7.850961E1,2.5991092E0,9.794268E1,1.3579381E2,1.3459256E1,1.0013465E1,6.849615E1,1.2453623E0,1.353747E0,1.3042841E1,1.2275096E2,1.2179479E1,1.279778E0,3.5514412E0,6.462024E0,6.6709816E1,1.7863294E0,6.2549324E1,6.0201637E1,7.8215017E0,4.3579764E0,4.960314E0,1.5017104E0,1.4490054E1,5.2219765E1],"tree_param":{"num_deleted":"0","num_feature":"46","num_nodes":"29","size_leaf_vector":"1"}},{"base_weights":[4.64746E-2,-4.308596E-1,1.0968944E0,-1.6193777E-1,-7.0680034E-1,1.1384257E-1,1.1211908E0,-6.432016E-1,1.2457924E-1,-4.6779297E-2,-9.451195E-1,-1.473991E-2,3.1168833E-2,5.6503154E-2,5.39746E-3,-2.9803148E-1,-6.109153E-2,1.0764842E0,-3.090256E-2,-6.189504E-1,7.9577345E-1,3.1463444E-2,-1.000571E0,-2.7975945E-2,6.7394756E-2,3.5226177E-3,7.271351E-2,-5.7784256E-2,6.53482E-3,2.363143E-2,-4.0269524E-2,5.934594E-2,-4.7501393E-2,-5.2286394E-2,1.3145389E-2],"categories":[],"categories_nodes":[],"categories_segments":[],"categories_sizes":[],"default_left":[0,0,0,0,0,0,0,0,0,0,0,0,0,0,0,0,0,0,0,0,0,0,0,0,0,0,0,0,0,0,0,0,0,0,0],"id":25,"left_children":[1,3,5,7,9,11,13,15,17,19,21,-1,-1,-1,-1,23,-1,25,27,29,31,-1,33,-1,-1,-1,-1,-1,-1,-1,-1,-1,-1,-1,-1],"loss_changes":[1.6604012E2,1.6688034E1,2.220375E0,1.6230196E1,1.7450603E1,9.8870933E-1,6.601105E-1,8.243715E0,1.1073396E1,1.5340748E1,7.8269653E0,0E0,0E0,0E0,0E0,1.3114683E1,0E0,3.73281E0,1.1958176E1,4.280342E0,9.91816E0,0E0,4.8989563E0,0E0,0E0,0E0,0E0,0E0,0E0,0E0,0E0,0E0,0E0,0E0,0E0],"parents":[2147483647,0,0,1,1,2,2,3,3,4,4,5,5,6,6,7,7,8,8,9,9,10,10,15,15,17,17,18,18,19,19,20,20,22,22],"right_children":[2,4,6,8,10,12,14,16,18,20,22,-1,-1,-1,-1,24,-1,26,28,30,32,-1,34,-1,-1,-1,-1,-1,-1,-1,-1,-1,-1,-1,-1],"split_conditions":[1E0,9.019608E-1,4.6511628E-2,4.6296296E-1,2.1276596E-1,2E0,9.444444E-1,3E-1,5.9770113E-1,1E0,5.982847E-1,-1.473991E-2,3.1168833E-2,5.6503154E-2,5.39746E-3,2.962963E-1,-6.109153E-2,9.467516E-1,6.4E-1,-3.5487287E-2,1E0,3.1463444E-2,7E0,-2.7975945E-2,6.7394756E-2,3.5226177E-3,7.271351E-2,-5.7784256E-2,6.53482E-3,2.363143E-2,-4.0269524E-2,5.934594E-2,-4.7501393E-2,-5.2286394E-2,1.3145389E-2],"split_indices":[8,23,27,39,26,3,39,27,23,31,40,0,0,0,0,27,0,1,39,43,10,0,31,0,0,0,0,0,0,0,0,0,0,0,0],"split_type":[0,0,0,0,0,0,0,0,0,0,0,0,0,0,0,0,0,0,0,0,0,0,0,0,0,0,0,0,0,0,0,0,0,0,0],"sum_hessian":[3.2907678E2,2.2659952E2,1.02477264E2,1.15746475E2,1.1085304E2,2.7080708E0,9.9769196E1,4.285943E1,7.288705E1,2.9836693E1,8.101635E1,1.6277839E0,1.080287E0,9.8691025E1,1.0781665E0,2.7902569E1,1.4956859E1,9.492263E0,6.3394783E1,1.7998276E1,1.1838417E1,2.3429673E0,7.8673386E1,2.4699404E1,3.2031653E0,2.9875913E0,6.5046716E0,7.2687955E0,5.6125984E1,2.323448E0,1.5674827E1,9.97985E0,1.858567E0,7.620142E1,2.4719594E0],"tree_param":{"num_deleted":"0","num_feature":"46","num_nodes":"35","size_leaf_vector":"1"}},{"base_weights":[3.8962603E-2,-3.6669692E-1,1.0738363E0,1.0474943E-1,-7.1852976E-1,3.4040827E-1,1.1008538E0,-6.965639E-1,5.2895933E-1,-2.3081903E-1,-9.4246036E-1,-1.4212462E-2,4.0427044E-2,5.5578317E-2,4.3594437E-3,-1.0675308E0,3.5906056E-1,-7.37552E-2,7.3294026E-1,-5.526396E-1,9.0421253E-1,-2.7988532E-1,-5.8526617E-2,-6.170112E-2,3.9098833E-2,-4.9141776E-2,4.888409E-2,4.19177E-2,-5.8671292E-2,-3.0182807E-2,4.6655808E-2,-4.5651067E-2,3.0853752E-2,6.216926E-2,-4.0146153E-2,-3.0870015E-2,4.908572E-2],"categories":[],"categories_nodes":[],"categories_segments":[],"categories_sizes":[],"default_left":[0,0,0,0,0,0,0,0,0,0,0,0,0,0,0,0,0,0,0,0,0,0,0,0,0,0,0,0,0,0,0,0,0,0,0,0,0],"id":26,"left_children":[1,3,5,7,9,11,13,15,17,19,21,-1,-1,-1,-1,23,25,27,29,31,33,35,-1,-1,-1,-1,-1,-1,-1,-1,-1,-1,-1,-1,-1,-1,-1],"loss_changes":[1.2885423E2,3.6691765E1,1.1941223E0,3.2621967E1,1.3475189E1,1.6421618E0,6.822815E-1,1.3459585E1,7.8312397E0,1.5533917E1,1.25527725E1,0E0,0E0,0E0,0E0,8.676531E0,8.692398E0,1.771216E1,1.3192144E1,1.4432608E1,6.498964E0,1.0575765E1,0E0,0E0,0E0,0E0,0E0,0E0,0E0,0E0,0E0,0E0,0E0,0E0,0E0,0E0,0E0],"parents":[2147483647,0,0,1,1,2,2,3,3,4,4,5,5,6,6,7,7,8,8,9,9,10,10,15,15,16,16,17,17,18,18,19,19,20,20,21,21],"right_children":[2,4,6,8,10,12,14,16,18,20,22,-1,-1,-1,-1,24,26,28,30,32,34,36,-1,-1,-1,-1,-1,-1,-1,-1,-1,-1,-1,-1,-1,-1,-1],"split_conditions":[1E0,8.181818E-1,4.6511628E-2,7E0,4.5762712E-1,2E0,6.0022354E-1,1.618E3,7.777778E-1,4E0,8.095238E-1,-1.4212462E-2,4.0427044E-2,5.5578317E-2,4.3594437E-3,9.241918E-1,7.878788E-1,1.9565217E-1,1.8181819E-1,7.940917E-1,7.7840024E-1,9.199134E-1,-5.8526617E-2,-6.170112E-2,3.9098833E-2,-4.9141776E-2,4.888409E-2,4.19177E-2,-5.8671292E-2,-3.0182807E-2,4.6655808E-2,-4.5651067E-2,3.0853752E-2,6.216926E-2,-4.0146153E-2,-3.0870015E-2,4.908572E-2],"split_indices":[8,24,27,36,26,3,40,34,22,31,23,0,0,0,0,40,27,27,27,40,40,40,0,0,0,0,0,0,0,0,0,0,0,0,0,0,0],"split_type":[0,0,0,0,0,0,0,0,0,0,0,0,0,0,0,0,0,0,0,0,0,0,0,0,0,0,0,0,0,0,0,0,0,0,0,0,0],"sum_hessian":[3.0483084E2,2.1938376E2,8.5447075E1,9.3933495E1,1.25450264E2,3.6504803E0,8.179659E1,3.2210865E1,6.172263E1,4.0254692E1,8.519557E1,1.6405642E0,2.009916E0,8.074801E1,1.0485876E0,2.3896593E1,8.314272E0,1.5644646E1,4.607798E1,3.1830778E1,8.423914E0,2.249901E1,6.269656E1,2.2277992E1,1.6186014E0,2.386702E0,5.92757E0,8.631797E0,7.0128493E0,5.674373E0,4.040361E1,2.4566832E1,7.2639456E0,7.3031588E0,1.1207554E0,1.821567E1,4.283341E0],"tree_param":{"num_deleted":"0","num_feature":"46","num_nodes":"37","size_leaf_vector":"1"}},{"base_weights":[2.2347214E-2,-4.1975665E-1,1.0900854E0,-1.8125695E-1,-8.712795E-1,1.0996996E0,4.2541097E-3,-7.1569437E-1,1.3668372E-1,-9.873747E-1,1.9038625E-1,1.6097598E-2,5.547276E-2,-6.2228013E-2,-2.8864393E-1,3.3964223E-1,-4.3564376E-1,1.698424E-1,-1.102776E0,-4.2582568E-2,7.594299E-1,4.830919E-2,-3.1782668E-2,-4.082321E-2,2.6486436E-2,1.0311562E-2,-6.781841E-2,-4.5273893E-2,5.391475E-2,-5.9075553E-2,-4.0036168E-2,6.3092224E-2,-3.1188805E-2],"categories":[],"categories_nodes":[],"categories_segments":[],"categories_sizes":[],"default_left":[0,0,0,0,0,0,0,0,0,0,0,0,0,0,0,0,0,0,0,0,0,0,0,0,0,0,0,0,0,0,0,0,0],"id":27,"left_children":[1,3,5,7,9,11,-1,13,15,17,19,-1,-1,-1,21,23,25,27,29,-1,31,-1,-1,-1,-1,-1,-1,-1,-1,-1,-1,-1,-1],"loss_changes":[1.468335E2,2.341127E1,6.6819763E-1,2.4838871E1,9.583118E0,1.8294525E-1,0E0,1.1787758E1,1.0801983E1,9.411743E0,5.5019197E0,0E0,0E0,0E0,1.4313831E1,1.5448746E1,1.4780355E1,7.8203354E0,3.394165E-1,0E0,4.9487505E0,0E0,0E0,0E0,0E0,0E0,0E0,0E0,0E0,0E0,0E0,0E0,0E0],"parents":[2147483647,0,0,1,1,2,2,3,3,4,4,5,5,7,7,8,8,9,9,10,10,14,14,15,15,16,16,17,17,18,18,20,20],"right_children":[2,4,6,8,10,12,-1,14,16,18,20,-1,-1,-1,22,24,26,28,30,-1,32,-1,-1,-1,-1,-1,-1,-1,-1,-1,-1,-1,-1],"split_conditions":[1E0,8.18254E-1,6.0022354E-1,8.75E-1,6E0,5E0,4.2541097E-3,8.780488E-1,1E0,4.41E2,-3.0744338E-1,1.6097598E-2,5.547276E-2,-6.2228013E-2,9.019608E-1,1.8181819E-1,8.852459E-1,3E0,7E0,-4.2582568E-2,9.645127E-1,4.830919E-2,-3.1782668E-2,-4.082321E-2,2.6486436E-2,1.0311562E-2,-6.781841E-2,-4.5273893E-2,5.391475E-2,-5.9075553E-2,-4.0036168E-2,6.3092224E-2,-3.1188805E-2],"split_indices":[8,40,40,22,3,34,0,23,10,33,43,0,0,0,23,27,23,31,35,0,1,0,0,0,0,0,0,0,0,0,0,0,0],"split_type":[0,0,0,0,0,0,0,0,0,0,0,0,0,0,0,0,0,0,0,0,0,0,0,0,0,0,0,0,0,0,0,0,0],"sum_hessian":[3.0894287E2,2.1884282E2,9.010006E1,1.4426385E2,7.4578964E1,8.90544E1,1.045659E0,5.346171E1,9.080215E1,6.737549E1,7.2034755E0,1.6513977E0,8.7403E1,2.2923908E1,3.0537806E1,6.746059E1,2.3341557E1,5.988268E0,6.1387222E1,2.306826E0,4.8966494E0,6.1665015E0,2.4371304E1,8.986059E0,5.847453E1,1.4146707E1,9.19485E0,2.6933692E0,3.294899E0,4.6122078E1,1.5265146E1,3.7093549E0,1.1872946E0],"tree_param":{"num_deleted":"0","num_feature":"46","num_nodes":"33","size_leaf_vector":"1"}},{"base_weights":[-0E0,-3.786713E-1,1.0555791E0,-8.896153E-1,-2.1945539E-1,-1.2554464E-2,1.0799133E0,-9.848124E-1,3.27725E-1,1.8918484E-1,-5.138942E-1,1.0917766E0,2.9910018E-3,-1.3641006E-3,-1.091314E0,-3.6742236E-2,7.1034335E-2,-4.744757E-1,5.419978E-1,1.560177E-3,-8.251633E-1,1.6365258E-2,5.5179108E-2,-4.7142114E-2,7.310074E-2,3.156916E-3,-6.0527492E-2,-4.88733E-2,3.8844895E-2,3.070781E-2,-4.4375177E-2,-5.9756774E-2,1.7967967E-2,-7.66189E-3,-5.1978774E-2],"categories":[],"categories_nodes":[],"categories_segments":[],"categories_sizes":[],"default_left":[0,0,0,0,0,0,0,0,0,0,0,0,0,0,0,0,0,0,0,0,0,0,0,0,0,0,0,0,0,0,0,0,0,0,0],"id":28,"left_children":[1,3,5,7,9,-1,11,13,15,17,19,21,-1,23,25,-1,-1,27,29,31,33,-1,-1,-1,-1,-1,-1,-1,-1,-1,-1,-1,-1,-1,-1],"loss_changes":[1.1430469E2,1.681997E1,2.7544632E0,6.129406E0,1.9619488E1,0E0,7.196045E-1,4.7357063E0,6.0682116E0,1.6285486E1,1.525511E1,1.5784454E-1,0E0,9.061624E0,5.925434E0,0E0,0E0,1.600206E1,5.1842785E0,1.5965517E1,8.23291E0,0E0,0E0,0E0,0E0,0E0,0E0,0E0,0E0,0E0,0E0,0E0,0E0,0E0,0E0],"parents":[2147483647,0,0,1,1,2,2,3,3,4,4,6,6,7,7,8,8,9,9,10,10,11,11,13,13,14,14,17,17,18,18,19,19,20,20],"right_children":[2,4,6,8,10,-1,12,14,16,18,20,22,-1,24,26,-1,-1,28,30,32,34,-1,-1,-1,-1,-1,-1,-1,-1,-1,-1,-1,-1,-1,-1],"split_conditions":[1E0,7.906977E-1,3.272727E-1,1E0,8.181818E-1,-1.2554464E-2,9.444444E-1,-8E0,6.3114756E-1,7E0,4.5762712E-1,-1E0,2.9910018E-3,9.166667E-1,2E-1,-3.6742236E-2,7.1034335E-2,1.618E3,1E1,1E0,8.095238E-1,1.6365258E-2,5.5179108E-2,-4.7142114E-2,7.310074E-2,3.156916E-3,-6.0527492E-2,-4.88733E-2,3.8844895E-2,3.070781E-2,-4.4375177E-2,-5.9756774E-2,1.7967967E-2,-7.66189E-3,-5.1978774E-2],"split_indices":[8,22,22,42,24,0,39,3,1,36,26,34,0,24,24,0,0,34,3,22,23,0,0,0,0,0,0,0,0,0,0,0,0,0,0],"split_type":[0,0,0,0,0,0,0,0,0,0,0,0,0,0,0,0,0,0,0,0,0,0,0,0,0,0,0,0,0,0,0,0,0,0,0],"sum_hessian":[2.8401532E2,2.0952269E2,7.4492615E1,4.853908E1,1.6098361E2,1.116424E0,7.337619E1,4.5271935E1,3.2671478E0,6.742496E1,9.355865E1,7.2366295E1,1.0099014E0,4.614336E0,4.0657597E1,1.7763528E0,1.4907951E0,2.3184803E1,4.4240158E1,3.5479362E1,5.8079285E1,1.6661923E0,7.0700096E1,3.065903E0,1.5484328E0,3.7716806E0,3.6885918E1,1.6750662E1,6.4341407E0,4.2723866E1,1.5162915E0,7.5633254E0,2.7916039E1,1.457746E1,4.3501823E1],"tree_param":{"num_deleted":"0","num_feature":"46","num_nodes":"35","size_leaf_vector":"1"}}]},"name":"gbtree"},"learner_model_param":{"base_score":"5E-1","boost_from_average":"1","num_class":"0","num_feature":"46","num_target":"1"},"objective":{"name":"binary:logistic","reg_loss_param":{"scale_pos_weight":"6.16417933"}}},"version":[2,1,4]}